{"learner":{"attributes":{"scikit_learn":"{\"_estimator_type\": \"regressor\"}"},"feature_names":["IsHoliday","Size","Temperature","Fuel_Price","MarkDown1","MarkDown2","MarkDown3","MarkDown4","MarkDown5","CPI","Unemployment","Week","Month","Quarter","Is_Year_End","Active_Markdowns","Type_Num","Sales_Lag_1","Sales_Lag_2","Sales_Lag_4","Sales_Lag_8","Sales_Lag_52","Rolling_Mean_4","Rolling_Std_4","Rolling_Max_4","Rolling_Mean_8","Rolling_Std_8","Rolling_Max_8","Rolling_Mean_12","Rolling_Std_12","Rolling_Max_12","Dept_Avg_Sales_All_Stores","Store_Rank_In_Dept"],"feature_types":["int","int","float","float","float","float","float","float","float","float","float","int","int","int","int","int","int","float","float","float","float","float","float","float","float","float","float","float","float","float","float","float","float"],"gradient_booster":{"model":{"cats":{"enc":[],"feature_segments":[],"sorted_idx":[]},"gbtree_model_param":{"num_parallel_tree":"1","num_trees":"100"},"iteration_indptr":[0,1,2,3,4,5,6,7,8,9,10,11,12,13,14,15,16,17,18,19,20,21,22,23,24,25,26,27,28,29,30,31,32,33,34,35,36,37,38,39,40,41,42,43,44,45,46,47,48,49,50,51,52,53,54,55,56,57,58,59,60,61,62,63,64,65,66,67,68,69,70,71,72,73,74,75,76,77,78,79,80,81,82,83,84,85,86,87,88,89,90,91,92,93,94,95,96,97,98,99,100],"tree_info":[0,0,0,0,0,0,0,0,0,0,0,0,0,0,0,0,0,0,0,0,0,0,0,0,0,0,0,0,0,0,0,0,0,0,0,0,0,0,0,0,0,0,0,0,0,0,0,0,0,0,0,0,0,0,0,0,0,0,0,0,0,0,0,0,0,0,0,0,0,0,0,0,0,0,0,0,0,0,0,0,0,0,0,0,0,0,0,0,0,0,0,0,0,0,0,0,0,0,0,0],"trees":[{"base_weights":[-1.4909351E-5,-4.3750273E3,1.783665E4,-5.547652E3,-1.3740974E2,8.720919E3,2.214963E4,-6.094922E3,-3.5190037E3,-1.3532784E3,1.191232E3,3.7146988E2,1.033577E3,2.33048E3,8.990578E2,-6.3107794E2,-3.4356863E2,-3.955234E2,-1.8419267E2,-1.6736277E3,-2.1408545E2,1.6353463E3,-1.0583301E2,-5.4503582E1,-1.8876463E2,-5.2233593E1,3.5533302E1,3.5447704E1,2.2167014E3,-3.2479626E1,2.7552832E1,2.4452489E2,5.3698242E1],"categories":[],"categories_nodes":[],"categories_segments":[],"categories_sizes":[],"default_left":[0,0,0,0,0,0,1,0,1,1,1,0,0,0,0,0,0,0,0,0,0,0,0,0,0,0,0,0,0,0,0,0,0],"id":0,"left_children":[1,3,5,7,9,11,13,15,17,19,21,-1,-1,-1,-1,-1,-1,-1,-1,23,25,27,29,-1,-1,-1,-1,-1,31,-1,-1,-1,-1],"loss_changes":[1.030073E10,5.2596582E8,8.2904934E8,7.070003E7,4.0382964E7,4.244877E7,4.889293E7,1.5055104E7,7.34656E6,4.385916E6,7.085616E6,0E0,0E0,0E0,0E0,0E0,0E0,0E0,0E0,1.38656E6,8.876973E5,5.915988E6,4.23507E5,0E0,0E0,0E0,0E0,0E0,9.90316E5,0E0,0E0,0E0,0E0],"parents":[2147483647,0,0,1,1,2,2,3,3,4,4,5,5,6,6,7,7,8,8,9,9,10,10,19,19,20,20,21,21,22,22,28,28],"right_children":[2,4,6,8,10,12,14,16,18,20,22,-1,-1,-1,-1,-1,-1,-1,-1,24,26,28,30,-1,-1,-1,-1,-1,32,-1,-1,-1,-1],"split_conditions":[2.4850164E4,1.6784123E4,2.4246512E4,1.5105565E4,1.9596299E4,4.3E1,1.5238294E4,2.33518E4,4.684587E4,2.6584957E4,2.3539785E4,3.7146988E2,1.033577E3,2.33048E3,8.990578E2,-6.3107794E2,-3.4356863E2,-3.955234E2,-1.8419267E2,5.498E1,4.64065E3,1.868954E4,1E0,-5.4503582E1,-1.8876463E2,-5.2233593E1,3.5533302E1,3.5447704E1,6.723E1,-3.2479626E1,2.7552832E1,2.4452489E2,5.3698242E1],"split_indices":[31,31,28,31,31,11,26,17,27,25,28,0,0,0,0,0,0,0,0,2,4,19,0,0,0,0,0,0,2,0,0,0,0],"split_type":[0,0,0,0,0,0,0,0,0,0,0,0,0,0,0,0,0,0,0,0,0,0,0,0,0,0,0,0,0,0,0,0,0],"sum_hessian":[1.3E2,1.05E2,2.5E1,8.2E1,2.3E1,9E0,1.6E1,6.3E1,1.9E1,1.2E1,1.1E1,3E0,6E0,1.4E1,2E0,5.7E1,6E0,1.4E1,5E0,9E0,3E0,8E0,3E0,2E0,7E0,2E0,1E0,3E0,5E0,2E0,1E0,4E0,1E0],"tree_param":{"num_deleted":"0","num_feature":"33","num_nodes":"33","size_leaf_vector":"1"}},{"base_weights":[2.4038153E1,-3.9515396E3,1.6231238E4,-5.011614E3,-1.2080331E2,7.186014E3,1.9852115E4,-5.729899E3,-3.6877874E3,-1.2379485E3,1.0995043E3,1.1858721E2,7.787798E2,2.0996707E3,7.130269E2,-5.8343237E3,-2.0795137E2,-2.4627144E3,-4.2996954E2,-1.397372E3,3.375664E1,1.509661E3,-9.822461E1,-5.890281E2,-1.5462129E2,-2.5566714E2,-6.676153E1,-1.7445935E2,-7.5938477E2,7.031595E2,2.3419981E2,-3.0314259E1,2.5826466E1,-8.351199E1,-1.903545E1,9.6680534E1,3.2963528E1],"categories":[],"categories_nodes":[],"categories_segments":[],"categories_sizes":[],"default_left":[0,0,0,0,0,0,1,0,0,0,0,0,0,0,0,0,0,1,0,0,0,0,0,0,0,0,0,0,0,0,0,0,0,0,0,0,0],"id":1,"left_children":[1,3,5,7,9,11,13,15,17,19,21,-1,-1,-1,-1,23,-1,25,-1,27,-1,29,31,-1,-1,-1,-1,-1,33,35,-1,-1,-1,-1,-1,-1,-1],"loss_changes":[8.5048596E9,4.2984614E8,7.08885E8,5.7792896E7,3.4079384E7,2.326176E7,1.1239117E8,7.6896E6,1.3399296E7,3.736966E6,6.043365E6,0E0,0E0,0E0,0E0,2.889728E6,0E0,4.85736E5,0E0,1.33346E6,0E0,4.394732E6,3.7049525E5,0E0,0E0,0E0,0E0,0E0,9.9605E4,2.721755E5,0E0,0E0,0E0,0E0,0E0,0E0,0E0],"parents":[2147483647,0,0,1,1,2,2,3,3,4,4,5,5,6,6,7,7,8,8,9,9,10,10,15,15,17,17,19,19,21,21,22,22,28,28,29,29],"right_children":[2,4,6,8,10,12,14,16,18,20,22,-1,-1,-1,-1,24,-1,26,-1,28,-1,30,32,-1,-1,-1,-1,-1,34,36,-1,-1,-1,-1,-1,-1,-1],"split_conditions":[2.4850164E4,1.6784123E4,2.2809285E4,1.4429742E4,1.9596299E4,2.728E0,2.236688E4,3.6E1,1.1E1,2.129013E4,1.6E1,1.1858721E2,7.787798E2,2.0996707E3,7.130269E2,4.491286E4,-2.0795137E2,1.4249725E4,-4.2996954E2,2.6203562E4,3.375664E1,2.0895283E4,7.866E0,-5.890281E2,-1.5462129E2,-2.5566714E2,-6.676153E1,-1.7445935E2,5.874E1,1.5E1,2.3419981E2,-3.0314259E1,2.5826466E1,-8.351199E1,-1.903545E1,9.6680534E1,3.2963528E1],"split_indices":[31,31,22,31,31,3,19,11,32,4,32,0,0,0,0,17,0,29,0,25,0,31,10,0,0,0,0,0,2,11,0,0,0,0,0,0,0],"split_type":[0,0,0,0,0,0,0,0,0,0,0,0,0,0,0,0,0,0,0,0,0,0,0,0,0,0,0,0,0,0,0,0,0,0,0,0,0],"sum_hessian":[1.3E2,1.05E2,2.5E1,8.2E1,2.3E1,8E0,1.7E1,5.1E1,3.1E1,1.2E1,1.1E1,1E0,7E0,1.5E1,2E0,4.9E1,2E0,1.2E1,1.9E1,1.1E1,1E0,8E0,3E0,4.8E1,1E0,1.1E1,1E0,6E0,5E0,5E0,3E0,2E0,1E0,4E0,1E0,2E0,3E0],"tree_param":{"num_deleted":"0","num_feature":"33","num_nodes":"37","size_leaf_vector":"1"}},{"base_weights":[3.7833897E1,-3.5713662E3,1.475081E4,-4.530983E3,-1.0388509E2,7.0968467E3,1.8385447E4,-4.977525E3,-2.8754993E3,-1.1328654E3,1.0195007E3,3.017059E2,8.4143195E2,1.8892518E4,5.1361505E2,-5.1478867E3,-2.8548785E2,-3.231255E2,-1.50686E2,-1.2807189E3,3.2068848E1,1.3991406E3,-8.956445E1,9.713623E2,2.0263524E3,-1.493169E2,-5.185809E2,-1.5950572E2,-7.005378E2,3.0495361E1,1.8954086E3,-2.8293295E1,2.4527052E1,-7.6831055E1,-1.8083693E1,2.089773E2,4.61793E1],"categories":[],"categories_nodes":[],"categories_segments":[],"categories_sizes":[],"default_left":[0,0,0,0,0,0,0,0,1,0,1,0,0,0,0,0,0,0,0,0,0,0,0,0,0,0,0,0,0,0,0,0,0,0,0,0,0],"id":2,"left_children":[1,3,5,7,9,11,13,15,17,19,21,-1,-1,23,-1,25,-1,-1,-1,27,-1,29,31,-1,-1,-1,-1,-1,33,-1,35,-1,-1,-1,-1,-1,-1],"loss_changes":[7.0090527E9,3.5223936E8,5.928243E8,4.704435E7,2.889756E7,2.8363584E7,1.7177088E7,8.446976E6,4.868976E6,3.204581E6,5.177859E6,0E0,0E0,4.516864E6,0E0,2.95168E5,0E0,0E0,0E0,1.071082E6,0E0,4.309078E6,3.2838122E5,0E0,0E0,0E0,0E0,0E0,7.23905E4,0E0,7.0682E5,0E0,0E0,0E0,0E0,0E0,0E0],"parents":[2147483647,0,0,1,1,2,2,3,3,4,4,5,5,6,6,7,7,8,8,9,9,10,10,13,13,15,15,19,19,21,21,22,22,28,28,30,30],"right_children":[2,4,6,8,10,12,14,16,18,20,22,-1,-1,24,-1,26,-1,-1,-1,28,-1,30,32,-1,-1,-1,-1,-1,34,-1,36,-1,-1,-1,-1,-1,-1],"split_conditions":[2.4850164E4,1.6784123E4,2.4246512E4,1.5105565E4,1.9596299E4,4.3E1,2.2151021E2,2.33518E4,4.684587E4,2.129013E4,2.3539785E4,3.017059E2,8.4143195E2,2.8540342E4,5.1361505E2,2.1033997E2,-2.8548785E2,-3.231255E2,-1.50686E2,2.6203562E4,3.2068848E1,1.868954E4,1E0,9.713623E2,2.0263524E3,-1.493169E2,-5.185809E2,-1.5950572E2,5.874E1,3.0495361E1,6.723E1,-2.8293295E1,2.4527052E1,-7.6831055E1,-1.8083693E1,2.089773E2,4.61793E1],"split_indices":[31,31,28,31,31,11,9,17,27,4,28,0,0,31,0,9,0,0,0,25,0,19,0,0,0,0,0,0,2,0,2,0,0,0,0,0,0],"split_type":[0,0,0,0,0,0,0,0,0,0,0,0,0,0,0,0,0,0,0,0,0,0,0,0,0,0,0,0,0,0,0,0,0,0,0,0,0],"sum_hessian":[1.3E2,1.05E2,2.5E1,8.2E1,2.3E1,9E0,1.6E1,6.3E1,1.9E1,1.2E1,1.1E1,3E0,6E0,1.5E1,1E0,5.7E1,6E0,1.4E1,5E0,1.1E1,1E0,8E0,3E0,3E0,1.2E1,1E0,5.6E1,6E0,5E0,3E0,5E0,2E0,1E0,4E0,1E0,4E0,1E0],"tree_param":{"num_deleted":"0","num_feature":"33","num_nodes":"37","size_leaf_vector":"1"}},{"base_weights":[5.9140358E1,-3.2271326E3,1.3454747E4,-4.0950803E3,-9.101587E1,6.5014766E3,1.6753451E4,-4.767998E3,-3.0841047E3,-1.0366825E3,9.41041E2,2.7907803E2,7.693092E2,1.1781383E3,1.9864026E3,-4.8611353E3,-1.750554E2,-3.5080423E2,-1.9438927E3,-1.1738485E3,3.046543E1,1.2916108E3,-8.3001465E1,-4.9102203E2,-1.3261583E2,-5.588916E1,-2.0189937E2,-1.4583379E2,-6.4630273E2,5.976722E2,2.0096162E2,-2.6407095E1,2.3010351E1,-7.714727E1,-2.6397526E1,6.814426E1,8.941016E0],"categories":[],"categories_nodes":[],"categories_segments":[],"categories_sizes":[],"default_left":[0,0,0,0,0,0,0,0,0,0,0,0,0,0,0,0,0,0,0,0,0,0,0,0,0,0,0,0,0,0,0,0,0,0,0,0,0],"id":3,"left_children":[1,3,5,7,9,11,13,15,17,19,21,-1,-1,-1,-1,23,-1,-1,25,27,-1,29,31,-1,-1,-1,-1,-1,33,35,-1,-1,-1,-1,-1,-1,-1],"loss_changes":[5.810253E9,2.881577E8,4.8743373E8,4.176013E7,2.4399122E7,2.274752E7,2.8895744E7,4.980224E6,1.0582368E7,2.749432E6,4.415188E6,0E0,0E0,0E0,0E0,1.469952E6,0E0,0E0,1.19776E5,8.58447E5,0E0,3.283173E6,2.8753872E5,0E0,0E0,0E0,0E0,0E0,8.348575E4,1.94536E5,0E0,0E0,0E0,0E0,0E0,0E0,0E0],"parents":[2147483647,0,0,1,1,2,2,3,3,4,4,5,5,6,6,7,7,8,8,9,9,10,10,15,15,18,18,19,19,21,21,22,22,28,28,29,29],"right_children":[2,4,6,8,10,12,14,16,18,20,22,-1,-1,-1,-1,24,-1,-1,26,28,-1,30,32,-1,-1,-1,-1,-1,34,36,-1,-1,-1,-1,-1,-1,-1],"split_conditions":[2.4850164E4,1.6784123E4,2.4246512E4,1.4408751E4,1.9596299E4,4.3E1,3.6959707E4,3.6E1,1.868954E4,2.129013E4,1.6E1,2.7907803E2,7.693092E2,1.1781383E3,1.9864026E3,4.491286E4,-1.750554E2,-3.5080423E2,1.940354E4,2.6203562E4,3.046543E1,2.0895283E4,7.866E0,-4.9102203E2,-1.3261583E2,-5.588916E1,-2.0189937E2,-1.4583379E2,1.1E1,6.907E1,2.0096162E2,-2.6407095E1,2.3010351E1,-7.714727E1,-2.6397526E1,6.814426E1,8.941016E0],"split_indices":[31,31,28,31,31,11,31,11,18,4,32,0,0,0,0,17,0,0,18,25,0,31,10,0,0,0,0,0,11,2,0,0,0,0,0,0,0],"split_type":[0,0,0,0,0,0,0,0,0,0,0,0,0,0,0,0,0,0,0,0,0,0,0,0,0,0,0,0,0,0,0,0,0,0,0,0,0],"sum_hessian":[1.3E2,1.05E2,2.5E1,8.2E1,2.3E1,9E0,1.6E1,4.7E1,3.5E1,1.2E1,1.1E1,3E0,6E0,8E0,8E0,4.5E1,2E0,2.4E1,1.1E1,1.1E1,1E0,8E0,3E0,4.4E1,1E0,1E0,1E1,6E0,5E0,5E0,3E0,2E0,1E0,3E0,2E0,4E0,1E0],"tree_param":{"num_deleted":"0","num_feature":"33","num_nodes":"37","size_leaf_vector":"1"}},{"base_weights":[7.506873E1,-2.91717E3,1.2271309E4,-3.7025278E3,-7.959188E1,5.358946E3,1.504575E4,-4.307838E3,-2.7925996E3,-9.4985364E2,8.698244E2,8.361865E1,5.8197675E2,1.5885078E3,5.554086E2,-3.3597717E2,-4.7646857E2,-1.8010288E3,-3.213342E2,-1.0772451E3,2.8942188E1,1.1977137E3,-8.538281E1,-1.8626234E2,-5.3094727E1,-1.3333372E2,-5.9893E2,2.5705763E1,1.6251989E3,-2.464668E1,1.9893457E1,-7.136128E1,-2.463763E1,1.7883864E2,4.0463085E1],"categories":[],"categories_nodes":[],"categories_segments":[],"categories_sizes":[],"default_left":[0,0,0,0,0,0,1,0,0,0,1,0,0,0,0,0,0,1,0,0,0,0,0,0,0,0,0,0,0,0,0,0,0,0,0],"id":4,"left_children":[1,3,5,7,9,11,13,15,17,19,21,-1,-1,-1,-1,-1,-1,23,-1,25,-1,27,29,-1,-1,-1,31,-1,33,-1,-1,-1,-1,-1,-1],"loss_changes":[4.8165197E9,2.3592787E8,4.1799706E8,3.3685376E7,2.0655984E7,1.3891264E7,5.5172096E7,4.781568E6,9.231744E6,2.364128E6,3.860692E6,0E0,0E0,0E0,0E0,0E0,0E0,2.8036E4,0E0,6.71338E5,0E0,3.201278E6,2.3222666E5,0E0,0E0,0E0,6.677375E4,0E0,4.71453E5,0E0,0E0,0E0,0E0,0E0,0E0],"parents":[2147483647,0,0,1,1,2,2,3,3,4,4,5,5,6,6,7,7,8,8,9,9,10,10,17,17,19,19,21,21,22,22,26,26,28,28],"right_children":[2,4,6,8,10,12,14,16,18,20,22,-1,-1,-1,-1,-1,-1,24,-1,26,-1,28,30,-1,-1,-1,32,-1,34,-1,-1,-1,-1,-1,-1],"split_conditions":[2.4850164E4,1.6784123E4,2.2809285E4,1.4408751E4,1.9596299E4,2.728E0,2.236688E4,1.3E1,1.1E1,2.129013E4,2.3539785E4,8.361865E1,5.8197675E2,1.5885078E3,5.554086E2,-3.3597717E2,-4.7646857E2,1.4249725E4,-3.213342E2,2.6203562E4,2.8942188E1,1.868954E4,1E0,-1.8626234E2,-5.3094727E1,-1.3333372E2,1.1E1,2.5705763E1,6.723E1,-2.464668E1,1.9893457E1,-7.136128E1,-2.463763E1,1.7883864E2,4.0463085E1],"split_indices":[31,31,22,31,31,3,19,32,32,4,28,0,0,0,0,0,0,29,0,25,0,19,0,0,0,0,11,0,2,0,0,0,0,0,0],"split_type":[0,0,0,0,0,0,0,0,0,0,0,0,0,0,0,0,0,0,0,0,0,0,0,0,0,0,0,0,0,0,0,0,0,0,0],"sum_hessian":[1.3E2,1.05E2,2.5E1,8.2E1,2.3E1,8E0,1.7E1,4.7E1,3.5E1,1.2E1,1.1E1,1E0,7E0,1.5E1,2E0,1.8E1,2.9E1,1.2E1,2.3E1,1.1E1,1E0,8E0,3E0,1.1E1,1E0,6E0,5E0,3E0,5E0,2E0,1E0,3E0,2E0,4E0,1E0],"tree_param":{"num_deleted":"0","num_feature":"33","num_nodes":"35","size_leaf_vector":"1"}},{"base_weights":[7.883091E1,-2.638031E3,1.1152236E4,-3.348819E3,-6.9971436E1,7.7656216E3,1.6686328E3,-2.3455923E3,-3.790632E3,-8.702829E2,8.028636E2,4.8970063E3,9.5708136E2,-2.5311406E3,-9.858422E1,-4.0926462E2,-2.7798074E2,-9.8863165E2,2.7495117E1,1.105166E3,-7.8032715E1,7.94377E1,5.3105383E2,-2.58081E2,-6.94375E1,-1.21905106E2,-5.550371E2,2.3777881E2,1.4992299E3,-2.3003581E2,1.8898829E1,-6.600918E1,-2.2995184E1,2.6898046E1,7.2086916E0,1.645316E2,3.843994E1,-7.0061526E0,-2.749922E1],"categories":[],"categories_nodes":[],"categories_segments":[],"categories_sizes":[],"default_left":[0,0,0,0,0,0,0,1,0,0,1,0,0,0,0,0,0,0,0,0,0,0,0,0,0,0,0,0,0,0,0,0,0,0,0,0,0,0,0],"id":5,"left_children":[1,3,5,7,9,11,-1,13,15,17,19,21,-1,23,-1,-1,-1,25,-1,27,29,-1,-1,-1,-1,-1,31,33,35,37,-1,-1,-1,-1,-1,-1,-1,-1,-1],"loss_changes":[3.9705436E9,1.9325229E8,3.5770803E8,2.78976E7,1.7463676E7,4.634304E7,0E0,4.569088E6,5.71904E6,2.033807E6,3.2818035E6,1.1050528E7,0E0,3.97488E5,0E0,0E0,0E0,5.22285E5,0E0,2.719768E6,2.0582614E5,0E0,0E0,0E0,0E0,0E0,5.3121125E4,1.2894844E3,3.44709E5,2.3092188E3,0E0,0E0,0E0,0E0,0E0,0E0,0E0,0E0,0E0],"parents":[2147483647,0,0,1,1,2,2,3,3,4,4,5,5,7,7,8,8,9,9,10,10,11,11,13,13,17,17,19,19,20,20,26,26,27,27,28,28,29,29],"right_children":[2,4,6,8,10,12,-1,14,16,18,20,22,-1,24,-1,-1,-1,26,-1,28,30,-1,-1,-1,-1,-1,32,34,36,38,-1,-1,-1,-1,-1,-1,-1,-1,-1],"split_conditions":[2.4850164E4,1.6784123E4,3.9540355E4,1.2E1,1.9596299E4,2.2809285E4,1.6686328E3,2.104339E4,1.4669181E4,2.129013E4,2.3539785E4,2.728E0,9.5708136E2,3.906E0,-9.858422E1,-4.0926462E2,-2.7798074E2,2.6203562E4,2.7495117E1,1.868954E4,1E0,7.94377E1,5.3105383E2,-2.58081E2,-6.94375E1,-1.21905106E2,1.1E1,6.452E1,6.723E1,4.984E1,1.8898829E1,-6.600918E1,-2.2995184E1,2.6898046E1,7.2086916E0,1.645316E2,3.843994E1,-7.0061526E0,-2.749922E1],"split_indices":[31,31,31,32,31,22,0,21,31,4,28,3,0,3,0,0,0,25,0,19,0,0,0,0,0,0,11,2,2,2,0,0,0,0,0,0,0,0,0],"split_type":[0,0,0,0,0,0,0,0,0,0,0,0,0,0,0,0,0,0,0,0,0,0,0,0,0,0,0,0,0,0,0,0,0,0,0,0,0,0,0],"sum_hessian":[1.3E2,1.05E2,2.5E1,8.2E1,2.3E1,1.7E1,8E0,2.7E1,5.5E1,1.2E1,1.1E1,8E0,9E0,2.3E1,4E0,4E1,1.5E1,1.1E1,1E0,8E0,3E0,1E0,7E0,2.2E1,1E0,6E0,5E0,3E0,5E0,2E0,1E0,3E0,2E0,2E0,1E0,4E0,1E0,1E0,1E0],"tree_param":{"num_deleted":"0","num_feature":"33","num_nodes":"39","size_leaf_vector":"1"}},{"base_weights":[8.744281E1,-2.3843728E3,1.0161481E4,-3.0273518E3,-6.1388508E1,4.7229795E3,1.2762866E4,-3.5310388E3,-2.2716758E3,-7.973634E2,7.410334E2,1.9841919E2,5.61329E2,8.9045374E2,1.5203099E3,-3.6038352E3,-1.2378131E2,-1.5538658E3,-2.7104037E2,-9.073444E2,2.612041E1,1.0209915E3,-7.413086E1,-3.6411284E3,-9.628223E1,-1.6013613E3,-4.2071682E1,-9.6532495E2,-1.347793E1,2.2252734E2,1.3831357E3,-2.1853386E2,1.7953907E1,-1.0680586E2,-3.6753333E2,-1.6507289E2,-4.5510742E1,-4.0595802E1,-1.1243428E2,2.5104818E1,6.8482423E0,1.5136911E2,3.651797E1,-6.6558595E0,-2.612422E1],"categories":[],"categories_nodes":[],"categories_segments":[],"categories_sizes":[],"default_left":[0,0,0,0,0,0,0,0,0,0,1,0,0,0,0,0,0,1,0,0,0,0,0,0,0,1,0,0,0,0,0,0,0,0,0,0,0,0,0,0,0,0,0,0,0],"id":6,"left_children":[1,3,5,7,9,11,13,15,17,19,21,-1,-1,-1,-1,23,-1,25,-1,27,-1,29,31,33,-1,35,-1,37,-1,39,41,43,-1,-1,-1,-1,-1,-1,-1,-1,-1,-1,-1,-1,-1],"loss_changes":[3.2862815E9,1.5813894E8,3.0755994E8,2.3570432E7,1.4764371E7,1.3245872E7,2.4681984E7,3.552128E6,7.125632E6,1.750492E6,2.8142295E6,0E0,0E0,0E0,0E0,1.024896E6,0E0,1.87388E5,0E0,4.07419E5,0E0,2.294648E6,1.8575816E5,3.5008E4,0E0,9.756E4,0E0,5.22006E5,0E0,3.8157812E2,2.44627E5,2.0839219E3,0E0,0E0,0E0,0E0,0E0,0E0,0E0,0E0,0E0,0E0,0E0,0E0,0E0],"parents":[2147483647,0,0,1,1,2,2,3,3,4,4,5,5,6,6,7,7,8,8,9,9,10,10,15,15,17,17,19,19,21,21,22,22,23,23,25,25,27,27,29,29,30,30,31,31],"right_children":[2,4,6,8,10,12,14,16,18,20,22,-1,-1,-1,-1,24,-1,26,-1,28,-1,30,32,34,-1,36,-1,38,-1,40,42,44,-1,-1,-1,-1,-1,-1,-1,-1,-1,-1,-1,-1,-1],"split_conditions":[2.4850164E4,1.6784123E4,2.4246512E4,1.4408751E4,1.9596299E4,4.3E1,3.6959707E4,3.6E1,7.043E1,2.129013E4,2.3539785E4,1.9841919E2,5.61329E2,8.9045374E2,1.5203099E3,4.491286E4,-1.2378131E2,2.622921E4,-2.7104037E2,3.682E0,2.612041E1,1.868954E4,1E0,2.1405284E2,-9.628223E1,1.4249725E4,-4.2071682E1,5.498E1,-1.347793E1,6.452E1,6.723E1,4.984E1,1.7953907E1,-1.0680586E2,-3.6753333E2,-1.6507289E2,-4.5510742E1,-4.0595802E1,-1.1243428E2,2.5104818E1,6.8482423E0,1.5136911E2,3.651797E1,-6.6558595E0,-2.612422E1],"split_indices":[31,31,28,31,31,11,31,11,2,4,28,0,0,0,0,17,0,21,0,3,0,19,0,23,0,29,0,2,0,2,2,2,0,0,0,0,0,0,0,0,0,0,0,0,0],"split_type":[0,0,0,0,0,0,0,0,0,0,0,0,0,0,0,0,0,0,0,0,0,0,0,0,0,0,0,0,0,0,0,0,0,0,0,0,0,0,0,0,0,0,0,0,0],"sum_hessian":[1.3E2,1.05E2,2.5E1,8.2E1,2.3E1,9E0,1.6E1,4.7E1,3.5E1,1.2E1,1.1E1,3E0,6E0,8E0,8E0,4.5E1,2E0,1.5E1,2E1,1.1E1,1E0,8E0,3E0,4.4E1,1E0,1.4E1,1E0,1E1,1E0,3E0,5E0,2E0,1E0,1E0,4.3E1,1.3E1,1E0,3E0,7E0,2E0,1E0,4E0,1E0,1E0,1E0],"tree_param":{"num_deleted":"0","num_feature":"33","num_nodes":"45","size_leaf_vector":"1"}},{"base_weights":[9.409588E1,-2.1568174E3,9.267277E3,-2.7392925E3,-5.255705E1,4.3266567E3,1.1628391E4,-2.0437745E3,-3.2038623E3,-7.284265E2,6.8401465E2,1.835377E2,5.1321515E2,1.276867E4,6.337984E2,-2.7075015E2,-1.6434346E3,-3.5726804E2,-2.5088833E3,-8.30486E2,2.4814356E1,9.4331903E2,-7.042383E1,1.3255525E3,3.46321E2,-1.760415E2,-8.234297E1,-2.6136642E2,-1.04390434E2,-8.827047E2,-1.2804004E1,2.082627E1,1.2761367E3,-2.0760677E2,1.705625E1,-3.7551125E1,-1.0259634E2,1.3925957E2,3.469209E1,-6.323047E0,-2.4817968E1],"categories":[],"categories_nodes":[],"categories_segments":[],"categories_sizes":[],"default_left":[0,0,0,0,0,0,0,0,0,0,1,0,0,0,0,0,1,0,0,0,0,0,0,0,0,0,0,0,0,0,0,0,0,0,0,0,0,0,0,0,0],"id":7,"left_children":[1,3,5,7,9,11,13,15,17,19,21,-1,-1,23,-1,-1,25,-1,27,29,-1,31,33,-1,-1,-1,-1,-1,-1,35,-1,-1,37,39,-1,-1,-1,-1,-1,-1,-1],"loss_changes":[2.7248801E9,1.2977798E8,2.529874E8,2.027072E7,1.2446086E7,1.064768E7,2.16256E7,5.116192E6,3.339968E6,1.5017665E6,2.4139825E6,0E0,0E0,1.2988544E7,0E0,0E0,9.48536E5,0E0,3.41624E5,3.27149E5,0E0,1.935985E6,1.6764678E5,0E0,0E0,0E0,0E0,0E0,0E0,4.13998E5,0E0,0E0,1.66173E5,1.8807812E3,0E0,0E0,0E0,0E0,0E0,0E0,0E0],"parents":[2147483647,0,0,1,1,2,2,3,3,4,4,5,5,6,6,7,7,8,8,9,9,10,10,13,13,16,16,18,18,19,19,21,21,22,22,29,29,32,32,33,33],"right_children":[2,4,6,8,10,12,14,16,18,20,22,-1,-1,24,-1,-1,26,-1,28,30,-1,32,34,-1,-1,-1,-1,-1,-1,36,-1,-1,38,40,-1,-1,-1,-1,-1,-1,-1],"split_conditions":[2.4850164E4,1.6784123E4,2.4246512E4,1.3E1,1.9596299E4,4.3E1,4.603949E4,1.3765471E4,1.440006E4,2.129013E4,2.3539785E4,1.835377E2,5.1321515E2,1.030958E4,6.337984E2,-2.7075015E2,2.104339E4,-3.5726804E2,3.554E0,3.682E0,2.4814356E1,1.868954E4,1E0,1.3255525E3,3.46321E2,-1.760415E2,-8.234297E1,-2.6136642E2,-1.04390434E2,5.498E1,-1.2804004E1,2.082627E1,6.723E1,4.984E1,1.705625E1,-3.7551125E1,-1.0259634E2,1.3925957E2,3.469209E1,-6.323047E0,-2.4817968E1],"split_indices":[31,31,28,32,31,11,17,31,31,4,28,0,0,4,0,0,21,0,3,3,0,19,0,0,0,0,0,0,0,2,0,0,2,2,0,0,0,0,0,0,0],"split_type":[0,0,0,0,0,0,0,0,0,0,0,0,0,0,0,0,0,0,0,0,0,0,0,0,0,0,0,0,0,0,0,0,0,0,0,0,0,0,0,0,0],"sum_hessian":[1.3E2,1.05E2,2.5E1,8.2E1,2.3E1,9E0,1.6E1,3.5E1,4.7E1,1.2E1,1.1E1,3E0,6E0,1.2E1,4E0,1.1E1,2.4E1,2.8E1,1.9E1,1.1E1,1E0,8E0,3E0,1.1E1,1E0,2E1,4E0,1.7E1,2E0,1E1,1E0,3E0,5E0,2E0,1E0,3E0,7E0,4E0,1E0,1E0,1E0],"tree_param":{"num_deleted":"0","num_feature":"33","num_nodes":"41","size_leaf_vector":"1"}},{"base_weights":[9.844839E1,-1.9524528E3,8.456028E3,-2.5102383E3,-1.3964227E2,3.6059954E3,1.0411265E4,-1.6184559E3,-2.7953877E3,-7.465833E2,6.306709E2,5.636797E1,3.915825E2,8.249542E2,1.4381837E3,-1.7559378E2,-7.998301E1,-2.4751907E3,-3.4050037E2,-8.3358734E2,2.3573633E1,8.7062915E2,-6.690283E1,-1.2316172E2,-2.5376683E2,-1.052241E3,-4.6461356E2,1.9264307E2,1.177515E3,-1.9722656E2,1.6203419E1,-4.486133E1,-1.17868126E2,-5.425723E1,-1.7981121E1,2.2042707E1,5.464551E0,6.2562695E1,1.5208607E2,-6.0069337E0,-2.3577051E1],"categories":[],"categories_nodes":[],"categories_segments":[],"categories_sizes":[],"default_left":[0,0,0,0,0,0,0,0,0,0,1,0,0,0,0,0,0,0,0,0,0,0,0,0,0,0,0,0,1,0,0,0,0,0,0,0,0,0,0,0,0],"id":8,"left_children":[1,3,5,7,9,11,13,15,17,19,21,-1,-1,-1,-1,-1,-1,23,-1,25,-1,27,29,-1,-1,31,33,35,37,39,-1,-1,-1,-1,-1,-1,-1,-1,-1,-1,-1],"loss_changes":[2.2619246E9,1.0683235E8,2.0901414E8,1.6073408E7,1.2626751E7,6.27612E6,3.585523E7,1.071564E6,3.283808E6,1.478493E6,2.06691E6,0E0,0E0,0E0,0E0,0E0,0E0,2.15472E5,0E0,6.40598E5,0E0,1.6457395E6,1.5130114E5,0E0,0E0,8.1812E4,5.785925E4,3.2911562E3,1.854385E5,1.6971641E3,0E0,0E0,0E0,0E0,0E0,0E0,0E0,0E0,0E0,0E0,0E0],"parents":[2147483647,0,0,1,1,2,2,3,3,4,4,5,5,6,6,7,7,8,8,9,9,10,10,17,17,19,19,21,21,22,22,25,25,26,26,27,27,28,28,29,29],"right_children":[2,4,6,8,10,12,14,16,18,20,22,-1,-1,-1,-1,-1,-1,24,-1,26,-1,28,30,-1,-1,32,34,36,38,40,-1,-1,-1,-1,-1,-1,-1,-1,-1,-1,-1],"split_conditions":[2.4850164E4,1.6340391E4,2.2809285E4,6.474E1,1.9596299E4,2.728E0,4.960787E4,3.311E0,1.5E1,2.129013E4,2.3539785E4,5.636797E1,3.915825E2,8.249542E2,1.4381837E3,-1.7559378E2,-7.998301E1,1E1,-3.4050037E2,2.387379E4,2.3573633E1,1.868954E4,1E0,-1.2316172E2,-2.5376683E2,1.1E1,1.8216596E4,6.452E1,2.213664E4,4.984E1,1.6203419E1,-4.486133E1,-1.17868126E2,-5.425723E1,-1.7981121E1,2.2042707E1,5.464551E0,6.2562695E1,1.5208607E2,-6.0069337E0,-2.3577051E1],"split_indices":[31,31,22,2,31,3,31,3,32,4,28,0,0,0,0,0,0,32,0,19,0,19,0,0,0,32,31,2,17,2,0,0,0,0,0,0,0,0,0,0,0],"split_type":[0,0,0,0,0,0,0,0,0,0,0,0,0,0,0,0,0,0,0,0,0,0,0,0,0,0,0,0,0,0,0,0,0,0,0,0,0,0,0,0,0],"sum_hessian":[1.3E2,1.05E2,2.5E1,8E1,2.5E1,8E0,1.7E1,2.1E1,5.9E1,1.4E1,1.1E1,1E0,7E0,1.3E1,4E0,1.7E1,4E0,4.2E1,1.7E1,1.3E1,1E0,8E0,3E0,3E0,3.9E1,7E0,6E0,3E0,5E0,2E0,1E0,2E0,5E0,4E0,2E0,2E0,1E0,3E0,2E0,1E0,1E0],"tree_param":{"num_deleted":"0","num_feature":"33","num_nodes":"41","size_leaf_vector":"1"}},{"base_weights":[1.0200425E2,-1.7662227E3,7.714698E3,-2.2452366E3,-3.604012E1,3.5147524E3,9.731449E3,-2.6328032E3,-1.6661134E3,-6.0807574E2,5.8666846E2,1.4878413E2,4.17088E3,7.6367834E2,1.323129E3,-2.0324773E2,-2.9252495E3,-2.0458016E3,-1.1727697E3,-6.9607355E2,2.2394922E1,8.104724E2,-6.3557617E1,1.8244662E2,4.7445517E2,-2.972383E3,-7.7918846E1,-5.529434E1,-2.0980191E2,-1.2022175E3,-3.3607815E1,-8.922634E1,-4.2847183E2,1.8025537E2,1.0955385E3,-1.8736523E2,1.5393262E1,-3.0163156E2,-8.711328E1,-1.2334574E2,-3.5118946E1,-4.9916603E1,-1.6782423E1,2.0573177E1,5.1913085E0,5.787051E1,1.41947E2,-5.706543E0,-2.2398243E1],"categories":[],"categories_nodes":[],"categories_segments":[],"categories_sizes":[],"default_left":[0,0,0,0,0,0,0,0,0,0,1,0,0,0,0,0,0,0,1,0,0,0,0,0,0,0,0,0,0,1,0,0,0,0,1,0,0,0,0,0,0,0,0,0,0,0,0,0,0],"id":9,"left_children":[1,3,5,7,9,11,13,15,17,19,21,-1,23,-1,-1,-1,25,27,29,31,-1,33,35,-1,-1,37,-1,-1,-1,39,-1,-1,41,43,45,47,-1,-1,-1,-1,-1,-1,-1,-1,-1,-1,-1,-1,-1],"loss_changes":[1.8767392E9,8.776989E7,1.8602278E8,1.424272E7,8.905815E6,7.093528E6,2.3582464E7,2.481504E6,4.344152E6,1.107698E6,1.7977898E6,0E0,7.66232E5,0E0,0E0,0E0,7.18496E5,3.21024E5,3.9458E4,2.476995E5,0E0,1.4194045E6,1.365494E5,0E0,0E0,4.9504E4,0E0,0E0,0E0,1.8786E4,0E0,0E0,4.521175E4,2.3986328E3,1.830575E5,1.5319844E3,0E0,0E0,0E0,0E0,0E0,0E0,0E0,0E0,0E0,0E0,0E0,0E0,0E0],"parents":[2147483647,0,0,1,1,2,2,3,3,4,4,5,5,6,6,7,7,8,8,9,9,10,10,12,12,16,16,17,17,18,18,19,19,21,21,22,22,25,25,29,29,32,32,33,33,34,34,35,35],"right_children":[2,4,6,8,10,12,14,16,18,20,22,-1,24,-1,-1,-1,26,28,30,32,-1,34,36,-1,-1,38,-1,-1,-1,40,-1,-1,42,44,46,48,-1,-1,-1,-1,-1,-1,-1,-1,-1,-1,-1,-1,-1],"split_conditions":[2.4850164E4,1.6784123E4,2.4246512E4,1.4408751E4,1.9596299E4,4.3E1,4.960787E4,1.3E1,2.4197426E4,2.129013E4,2.3539785E4,1.4878413E2,2.338803E4,7.6367834E2,1.323129E3,-2.0324773E2,7.21813E3,1E1,2.622921E4,2.387379E4,2.2394922E1,1.868954E4,1E0,1.8244662E2,4.7445517E2,6.347E2,-7.7918846E1,-5.529434E1,-2.0980191E2,1.4249725E4,-3.3607815E1,-8.922634E1,1.8216596E4,6.452E1,2.213664E4,4.984E1,1.5393262E1,-3.0163156E2,-8.711328E1,-1.2334574E2,-3.5118946E1,-4.9916603E1,-1.6782423E1,2.0573177E1,5.1913085E0,5.787051E1,1.41947E2,-5.706543E0,-2.2398243E1],"split_indices":[31,31,28,31,31,11,31,32,25,4,28,0,17,0,0,0,4,32,21,19,0,19,0,0,0,6,0,0,0,29,0,0,31,2,17,2,0,0,0,0,0,0,0,0,0,0,0,0,0],"split_type":[0,0,0,0,0,0,0,0,0,0,0,0,0,0,0,0,0,0,0,0,0,0,0,0,0,0,0,0,0,0,0,0,0,0,0,0,0,0,0,0,0,0,0,0,0,0,0,0,0],"sum_hessian":[1.3E2,1.05E2,2.5E1,8.2E1,2.3E1,9E0,1.6E1,4.7E1,3.5E1,1.2E1,1.1E1,3E0,6E0,1.2E1,4E0,1.8E1,2.9E1,1.8E1,1.7E1,1.1E1,1E0,8E0,3E0,2E0,4E0,2.8E1,1E0,1E0,1.7E1,1.6E1,1E0,5E0,6E0,3E0,5E0,2E0,1E0,2.7E1,1E0,1.5E1,1E0,4E0,2E0,2E0,1E0,3E0,2E0,1E0,1E0],"tree_param":{"num_deleted":"0","num_feature":"33","num_nodes":"49","size_leaf_vector":"1"}},{"base_weights":[1.0588586E2,-1.5994847E3,7.054478E3,-2.167701E3,-3.8488336E2,4.8197324E3,1.0740138E4,-1.6360525E3,-2.4882068E3,-9.659543E2,3.655105E2,2.982607E3,5.9911725E2,4.2723907E2,1.1977723E3,-2.0805843E2,-1.2691875E3,-1.313893E2,-2.5749595E3,-6.009273E2,-1.1592284E3,1.2135426E2,1.0676406E3,4.611045E1,3.240157E2,-1.3230072E2,-5.411465E1,-6.98127E1,-2.605978E2,-1.8011915E1,-6.3101345E1,-1.2065629E2,-3.1927443E1,2.767916E2,-2.9757764E2,1.3248386E2,1.4802344E1,4.047278E1,-1.5663543E1,-5.4211917E0,-3.6062893E1],"categories":[],"categories_nodes":[],"categories_segments":[],"categories_sizes":[],"default_left":[0,0,0,0,0,0,0,0,0,0,0,0,0,0,0,0,0,0,0,0,1,0,0,0,0,0,0,0,0,0,0,0,0,1,0,0,0,0,0,0,0],"id":10,"left_children":[1,3,5,7,9,11,13,15,17,19,21,23,-1,-1,-1,-1,25,-1,27,29,31,33,35,-1,-1,-1,-1,-1,-1,-1,-1,-1,-1,37,39,-1,-1,-1,-1,-1,-1],"loss_changes":[1.5636236E9,7.232224E7,1.6238477E8,8.197696E6,1.5614188E7,2.0868192E7,2.0865984E7,2.251848E6,9.97392E5,7.14392E5,2.6133082E6,4.350656E6,0E0,0E0,0E0,0E0,2.8536E4,0E0,4.51152E5,2.865E2,9.1882E4,9.288966E5,7.499875E5,0E0,0E0,0E0,0E0,0E0,0E0,0E0,0E0,0E0,0E0,6.1790475E5,4.1827688E4,0E0,0E0,0E0,0E0,0E0,0E0],"parents":[2147483647,0,0,1,1,2,2,3,3,4,4,5,5,6,6,7,7,8,8,9,9,10,10,11,11,16,16,18,18,19,19,20,20,21,21,22,22,33,33,34,34],"right_children":[2,4,6,8,10,12,14,16,18,20,22,24,-1,-1,-1,-1,26,-1,28,30,32,34,36,-1,-1,-1,-1,-1,-1,-1,-1,-1,-1,38,40,-1,-1,-1,-1,-1,-1],"split_conditions":[2.4850164E4,1.5523422E4,3.9540355E4,7.644E1,1.8216596E4,2.2809285E4,2.5006783E4,1.3765471E4,1.2E1,6.096E1,2.1815234E4,2.728E0,5.9911725E2,4.2723907E2,1.1977723E3,-2.0805843E2,4.678875E4,-1.313893E2,2.1405284E2,2.627E0,2.622921E4,1.6E1,2.735E0,4.611045E1,3.240157E2,-1.3230072E2,-5.411465E1,-6.98127E1,-2.605978E2,-1.8011915E1,-6.3101345E1,-1.2065629E2,-3.1927443E1,4.159555E4,4.984E1,1.3248386E2,1.4802344E1,4.047278E1,-1.5663543E1,-5.4211917E0,-3.6062893E1],"split_indices":[31,31,31,2,31,22,28,31,32,2,31,3,0,0,0,0,18,0,23,3,21,32,3,0,0,0,0,0,0,0,0,0,0,19,2,0,0,0,0,0,0],"split_type":[0,0,0,0,0,0,0,0,0,0,0,0,0,0,0,0,0,0,0,0,0,0,0,0,0,0,0,0,0,0,0,0,0,0,0,0,0,0,0,0,0],"sum_hessian":[1.3E2,1.05E2,2.5E1,7.1E1,3.4E1,1.7E1,8E0,2.9E1,4.2E1,1.9E1,1.5E1,8E0,9E0,2E0,6E0,1.1E1,1.8E1,4E0,3.8E1,8E0,1.1E1,1.2E1,3E0,1E0,7E0,1.6E1,2E0,1E0,3.7E1,1E0,7E0,1E1,1E0,9E0,3E0,2E0,1E0,7E0,2E0,1E0,2E0],"tree_param":{"num_deleted":"0","num_feature":"33","num_nodes":"41","size_leaf_vector":"1"}},{"base_weights":[1.077773E2,-1.4485868E3,6.4488086E3,-1.7880498E3,1.9990399E2,4.391606E3,9.84668E3,-2.0413086E3,-1.0681853E3,-1.0753516E2,7.423047E2,5.9853723E2,3.0959421E3,3.9875653E2,1.0951061E3,-2.4725398E3,-1.7014799E3,-7.497005E2,-1.2648733E2,3.654922E1,-2.267667E2,1.0035781E3,5.9414062E1,1.2027183E2,3.5933813E3,-2.5156592E2,-6.972774E1,-3.6037792E1,-1.7272883E3,-1.7111328E1,-7.867436E1,-3.7923187E2,3.203789E1,1.12991165E2,2.4912207E1,-5.150098E0,1.4062207E1,1.4868242E2,3.9828513E2,-1.7651514E2,-6.9716995E1,-4.102959E1,-9.642383E0,1.3742334E1,-1.9475195E1],"categories":[],"categories_nodes":[],"categories_segments":[],"categories_sizes":[],"default_left":[0,0,0,0,0,0,0,0,0,1,0,0,0,0,0,0,0,0,0,0,0,0,0,0,0,0,0,0,0,0,0,0,0,0,0,0,0,0,0,0,0,0,0,0,0],"id":11,"left_children":[1,3,5,7,9,11,13,15,17,19,21,-1,23,-1,-1,25,27,29,-1,-1,31,33,35,-1,37,-1,-1,-1,39,-1,-1,41,43,-1,-1,-1,-1,-1,-1,-1,-1,-1,-1,-1,-1],"loss_changes":[1.3021747E9,5.9675184E7,1.3850022E8,1.3862976E7,3.2481728E6,1.8639328E7,1.4568128E7,5.171904E6,6.17776E5,8.160785E5,1.1893212E6,0E0,6.979344E6,0E0,0E0,2.36128E5,7.27376E5,1.225695E5,0E0,0E0,4.461953E5,1.950795E5,3.4263742E4,0E0,1.462168E6,0E0,0E0,0E0,2.51512E5,0E0,0E0,2.1933812E4,1.4626522E5,0E0,0E0,0E0,0E0,0E0,0E0,0E0,0E0,0E0,0E0,0E0,0E0],"parents":[2147483647,0,0,1,1,2,2,3,3,4,4,5,5,6,6,7,7,8,8,9,9,10,10,12,12,15,15,16,16,17,17,20,20,21,21,22,22,24,24,28,28,31,31,32,32],"right_children":[2,4,6,8,10,12,14,16,18,20,22,-1,24,-1,-1,26,28,30,-1,-1,32,34,36,-1,38,-1,-1,-1,40,-1,-1,42,44,-1,-1,-1,-1,-1,-1,-1,-1,-1,-1,-1,-1],"split_conditions":[2.4850164E4,1.7567973E4,3.9540355E4,1.5105565E4,2.0609277E4,1.3E1,2.5006783E4,1.663762E4,1.1E1,1.846118E4,1.6E1,5.9853723E2,2.6941715E4,3.9875653E2,1.0951061E3,9.8E0,8E0,4.663E1,-1.2648733E2,3.654922E1,1.9596299E4,6.723E1,4.984E1,1.2027183E2,2.338803E4,-2.5156592E2,-6.972774E1,-3.6037792E1,7.838E0,-1.7111328E1,-7.867436E1,3.682E0,3.285E0,1.12991165E2,2.4912207E1,-5.150098E0,1.4062207E1,1.4868242E2,3.9828513E2,-1.7651514E2,-6.9716995E1,-4.102959E1,-9.642383E0,1.3742334E1,-1.9475195E1],"split_indices":[31,31,31,31,31,32,28,19,32,24,32,0,31,0,0,6,32,2,0,0,31,2,2,0,17,0,0,0,10,0,0,3,3,0,0,0,0,0,0,0,0,0,0,0,0],"split_type":[0,0,0,0,0,0,0,0,0,0,0,0,0,0,0,0,0,0,0,0,0,0,0,0,0,0,0,0,0,0,0,0,0,0,0,0,0,0,0,0,0,0,0,0,0],"sum_hessian":[1.3E2,1.05E2,2.5E1,8.7E1,1.8E1,1.7E1,8E0,6.3E1,2.4E1,1.2E1,6E0,6E0,1.1E1,2E0,6E0,2.5E1,3.8E1,1.1E1,1.3E1,2E0,1E1,4E0,2E0,3E0,8E0,2.4E1,1E0,1E0,3.7E1,1E0,1E1,6E0,4E0,3E0,1E0,1E0,1E0,2E0,6E0,3.5E1,2E0,5E0,1E0,3E0,1E0],"tree_param":{"num_deleted":"0","num_feature":"33","num_nodes":"45","size_leaf_vector":"1"}},{"base_weights":[1.1273084E2,-1.3103209E3,5.910068E3,-1.6691316E3,-1.48376465E1,4.022766E3,9.027997E3,-1.9804283E3,-1.248374E3,-4.6098273E2,4.6972266E2,5.472339E2,2.8419514E3,3.7217267E2,1.0012399E4,-2.073754E3,-1.0126331E2,-1.5281724E3,-8.525884E1,-5.284382E2,1.7424122E1,2.0954709E2,9.37687E2,1.11251465E2,3.2948174E3,1.0754214E3,2.780756E2,-5.749629E1,-2.0968496E3,-4.2563087E1,-1.562018E2,-5.8454333E2,-1.6527473E1,3.8489746E2,-1.05865234E2,1.1611889E2,1.3359082E1,1.3877031E2,3.6414642E2,-2.1706456E2,-1.1461481E2,-2.3010498E1,-7.035734E1,1.12894535E1,4.1671917E1,-1.5596028E1,2.2209961E0],"categories":[],"categories_nodes":[],"categories_segments":[],"categories_sizes":[],"default_left":[0,0,0,0,0,0,0,0,0,0,0,0,0,0,0,0,0,0,0,0,0,0,0,0,0,0,0,0,0,0,0,0,0,0,0,0,0,0,0,0,0,0,0,0,0,0,0],"id":12,"left_children":[1,3,5,7,9,11,13,15,17,19,21,-1,23,-1,25,27,-1,29,-1,31,-1,33,35,-1,37,-1,-1,-1,39,-1,-1,41,-1,43,45,-1,-1,-1,-1,-1,-1,-1,-1,-1,-1,-1,-1],"loss_changes":[1.0884824E9,4.9247536E7,1.1667878E8,8.399072E6,5.4049545E6,1.5258048E7,9.748096E6,2.054768E6,2.905228E6,6.49117E5,1.264545E6,0E0,5.732904E6,0E0,7.646912E6,2.13632E5,0E0,1.18796E5,0E0,1.4789375E5,0E0,5.3851625E5,5.637435E5,0E0,8.96584E5,0E0,0E0,0E0,3.18432E5,0E0,0E0,2.599925E5,0E0,4.88825E3,2.9127605E4,0E0,0E0,0E0,0E0,0E0,0E0,0E0,0E0,0E0,0E0,0E0,0E0],"parents":[2147483647,0,0,1,1,2,2,3,3,4,4,5,5,6,6,7,7,8,8,9,9,10,10,12,12,14,14,15,15,17,17,19,19,21,21,22,22,24,24,28,28,31,31,33,33,34,34],"right_children":[2,4,6,8,10,12,14,16,18,20,22,-1,24,-1,26,28,-1,30,-1,32,-1,34,36,-1,38,-1,-1,-1,40,-1,-1,42,-1,44,46,-1,-1,-1,-1,-1,-1,-1,-1,-1,-1,-1,-1],"split_conditions":[2.4850164E4,1.6784123E4,3.9540355E4,1.440006E4,1.9596299E4,1.3E1,2.5006783E4,2.33518E4,2.4197426E4,2.129013E4,2.1815234E4,5.472339E2,2.6941715E4,3.7217267E2,1.0164E2,2.1405284E2,-1.0126331E2,1E1,-8.525884E1,3.637E0,1.7424122E1,1.5E1,2.735E0,1.11251465E2,2.338803E4,1.0754214E3,2.780756E2,-5.749629E1,1.926379E4,-4.2563087E1,-1.562018E2,5.498E1,-1.6527473E1,2.011303E4,6.632E1,1.1611889E2,1.3359082E1,1.3877031E2,3.6414642E2,-2.1706456E2,-1.1461481E2,-2.3010498E1,-7.035734E1,1.12894535E1,4.1671917E1,-1.5596028E1,2.2209961E0],"split_indices":[31,31,31,31,31,32,28,17,25,4,31,0,31,0,6,23,0,32,0,3,0,32,3,0,17,0,0,0,23,0,0,2,0,17,2,0,0,0,0,0,0,0,0,0,0,0,0],"split_type":[0,0,0,0,0,0,0,0,0,0,0,0,0,0,0,0,0,0,0,0,0,0,0,0,0,0,0,0,0,0,0,0,0,0,0,0,0,0,0,0,0,0,0,0,0,0,0],"sum_hessian":[1.3E2,1.05E2,2.5E1,8.2E1,2.3E1,1.7E1,8E0,4.5E1,3.7E1,1.2E1,1.1E1,6E0,1.1E1,2E0,6E0,4E1,5E0,2E1,1.7E1,1.1E1,1E0,8E0,3E0,3E0,8E0,5E0,1E0,1E0,3.9E1,1E0,1.9E1,9E0,2E0,5E0,3E0,2E0,1E0,2E0,6E0,3.5E1,4E0,3E0,6E0,1E0,4E0,2E0,1E0],"tree_param":{"num_deleted":"0","num_feature":"33","num_nodes":"47","size_leaf_vector":"1"}},{"base_weights":[1.18169266E2,-1.1858726E3,5.4301025E3,-1.613075E3,-2.7317398E2,3.685012E3,8.316938E3,-1.4085187E3,-2.1484927E3,-7.138488E2,2.9474292E2,2.2450886E3,4.612442E3,3.473612E2,9.204516E3,-1.6493774E3,-1.1688417E3,-2.248751E2,-8.976182E1,-4.4464172E1,-8.562668E2,9.313356E1,8.762876E2,3.222871E1,2.4451529E2,5.0871347E2,1.8091139E2,9.8580286E2,2.6417188E2,-1.7325217E2,-7.7973976E1,-1.3769543E2,-8.177796E2,-8.938649E1,-2.2134375E1,2.1562968E2,-2.3639014E2,1.083776E2,1.2691113E1,-8.482784E1,-2.1064747E1,3.1308325E1,-1.1612305E1,-4.112793E0,-2.8776823E1],"categories":[],"categories_nodes":[],"categories_segments":[],"categories_sizes":[],"default_left":[0,0,0,0,0,0,0,0,1,0,0,0,1,0,0,0,0,0,0,0,1,0,0,0,0,0,0,0,0,0,0,0,0,0,0,1,0,0,0,0,0,0,0,0,0],"id":13,"left_children":[1,3,5,7,9,11,13,15,17,19,21,23,25,-1,27,29,31,-1,-1,-1,33,35,37,-1,-1,-1,-1,-1,-1,-1,-1,-1,39,-1,-1,41,43,-1,-1,-1,-1,-1,-1,-1,-1],"loss_changes":[9.138742E8,4.088949E7,1.0033446E8,4.859472E6,8.969736E6,1.3682384E7,6.716544E6,1.247192E6,2.38864E5,3.86066E5,1.7943058E6,2.674112E6,4.103984E6,0E0,3.979968E6,4.5672E5,1.138832E6,0E0,0E0,0E0,8.8612E4,5.7572256E5,4.8440475E5,0E0,0E0,0E0,0E0,0E0,0E0,0E0,0E0,0E0,8.0548E4,0E0,0E0,3.596611E5,2.82935E4,0E0,0E0,0E0,0E0,0E0,0E0,0E0,0E0],"parents":[2147483647,0,0,1,1,2,2,3,3,4,4,5,5,6,6,7,7,8,8,9,9,10,10,11,11,12,12,14,14,15,15,16,16,20,20,21,21,22,22,32,32,35,35,36,36],"right_children":[2,4,6,8,10,12,14,16,18,20,22,24,26,-1,28,30,32,-1,-1,-1,34,36,38,-1,-1,-1,-1,-1,-1,-1,-1,-1,40,-1,-1,42,44,-1,-1,-1,-1,-1,-1,-1,-1],"split_conditions":[2.4850164E4,1.5523422E4,3.9540355E4,1.5E1,1.8216596E4,2.2809285E4,2.5006783E4,1.3981173E4,1.768876E4,6.096E1,2.1815234E4,2.728E0,2.236688E4,3.473612E2,1.0164E2,3.698849E4,2.4197426E4,-2.248751E2,-8.976182E1,-4.4464172E1,2.622921E4,1.6E1,2.735E0,3.222871E1,2.4451529E2,5.0871347E2,1.8091139E2,9.8580286E2,2.6417188E2,-1.7325217E2,-7.7973976E1,-1.3769543E2,3.65722E3,-8.938649E1,-2.2134375E1,4.159555E4,4.984E1,1.083776E2,1.2691113E1,-8.482784E1,-2.1064747E1,3.1308325E1,-1.1612305E1,-4.112793E0,-2.8776823E1],"split_indices":[31,31,31,32,31,22,28,31,21,2,31,3,19,0,6,17,25,0,0,0,21,32,3,0,0,0,0,0,0,0,0,0,8,0,0,19,2,0,0,0,0,0,0,0,0],"split_type":[0,0,0,0,0,0,0,0,0,0,0,0,0,0,0,0,0,0,0,0,0,0,0,0,0,0,0,0,0,0,0,0,0,0,0,0,0,0,0,0,0,0,0,0,0],"sum_hessian":[1.3E2,1.05E2,2.5E1,7.1E1,3.4E1,1.7E1,8E0,5.4E1,1.7E1,1.9E1,1.5E1,8E0,9E0,2E0,6E0,2.4E1,3E1,1.5E1,2E0,8E0,1.1E1,1.2E1,3E0,1E0,7E0,7E0,2E0,5E0,1E0,2.1E1,3E0,1.7E1,1.3E1,1E1,1E0,9E0,3E0,2E0,1E0,1.2E1,1E0,7E0,2E0,1E0,2E0],"tree_param":{"num_deleted":"0","num_feature":"33","num_nodes":"45","size_leaf_vector":"1"}},{"base_weights":[1.1937625E2,-1.0753754E3,4.9856953E3,-1.3308246E3,1.6435608E2,3.3701973E3,7.6627256E3,-1.520917E3,-7.909549E2,-9.558716E0,8.189263E2,4.6427255E2,2.3470393E3,3.9438205E2,8.864875E3,-1.3204625E3,-1.9974402E2,-5.4438837E2,-9.458009E1,-2.1686206E2,1.7577301E2,1.0115247E2,1.2056543E1,8.9876076E1,2.7299365E3,9.633997E2,2.5096329E2,-2.5731543E1,-1.3376079E3,-1.2882031E1,-5.704563E1,-2.906638E2,1.49875E1,3.291442E2,-9.822705E1,1.1321797E2,3.0246988E2,-1.3617961E2,-5.2891537E1,-3.6446926E1,-1.4419238E1,3.6191757E1,8.263867E0,-2.241732E0,-1.6282812E1],"categories":[],"categories_nodes":[],"categories_segments":[],"categories_sizes":[],"default_left":[0,0,0,0,0,0,0,0,0,0,0,0,0,0,0,0,0,0,0,0,0,0,0,0,0,0,0,0,0,0,0,0,0,0,0,0,0,0,0,0,0,0,0,0,0],"id":14,"left_children":[1,3,5,7,9,11,13,15,17,19,21,-1,23,-1,25,27,-1,29,-1,31,33,-1,-1,-1,35,-1,-1,-1,37,-1,-1,39,-1,41,43,-1,-1,-1,-1,-1,-1,-1,-1,-1,-1],"loss_changes":[7.6700115E8,3.3787696E7,8.66183E7,7.828032E6,2.1707775E6,1.2539296E7,5.274592E6,3.475808E6,4.39613E5,6.528367E5,4.16058E5,0E0,4.200948E6,0E0,5.149952E6,5.3076E5,0E0,5.651E4,0E0,2.600899E5,4.1054428E5,0E0,0E0,0E0,8.14116E5,0E0,0E0,0E0,1.99088E5,0E0,0E0,2.3119E4,0E0,1.85645E4,1.5939391E4,0E0,0E0,0E0,0E0,0E0,0E0,0E0,0E0,0E0,0E0],"parents":[2147483647,0,0,1,1,2,2,3,3,4,4,5,5,6,6,7,7,8,8,9,9,10,10,12,12,14,14,15,15,17,17,19,19,20,20,24,24,28,28,31,31,33,33,34,34],"right_children":[2,4,6,8,10,12,14,16,18,20,22,-1,24,-1,26,28,-1,30,-1,32,34,-1,-1,-1,36,-1,-1,-1,38,-1,-1,40,-1,42,44,-1,-1,-1,-1,-1,-1,-1,-1,-1,-1],"split_conditions":[2.4850164E4,1.7567973E4,3.9540355E4,1.5105565E4,2.1815234E4,1.3E1,7.73681E3,1.5E1,1.1E1,1.9596299E4,2.735E0,4.6427255E2,2.6941715E4,3.9438205E2,1.0164E2,8E0,-1.9974402E2,4.663E1,-9.458009E1,1.03829E4,1.5E1,1.0115247E2,1.2056543E1,8.9876076E1,2.338803E4,9.633997E2,2.5096329E2,-2.5731543E1,3.6E1,-1.2882031E1,-5.704563E1,1.954939E4,1.49875E1,1E0,3.285E0,1.1321797E2,3.0246988E2,-1.3617961E2,-5.2891537E1,-3.6446926E1,-1.4419238E1,3.6191757E1,8.263867E0,-2.241732E0,-1.6282812E1],"split_indices":[31,31,31,31,31,32,26,32,32,31,3,0,31,0,6,32,0,2,0,4,32,0,0,0,17,0,0,0,11,0,0,18,0,0,3,0,0,0,0,0,0,0,0,0,0],"split_type":[0,0,0,0,0,0,0,0,0,0,0,0,0,0,0,0,0,0,0,0,0,0,0,0,0,0,0,0,0,0,0,0,0,0,0,0,0,0,0,0,0,0,0,0,0],"sum_hessian":[1.3E2,1.05E2,2.5E1,8.7E1,1.8E1,1.7E1,8E0,6.3E1,2.4E1,1.5E1,3E0,6E0,1.1E1,3E0,5E0,4.7E1,1.6E1,1.1E1,1.3E1,7E0,8E0,2E0,1E0,3E0,8E0,4E0,1E0,1E0,4.6E1,1E0,1E1,6E0,1E0,5E0,3E0,2E0,6E0,4.4E1,2E0,3E0,3E0,4E0,1E0,2E0,1E0],"tree_param":{"num_deleted":"0","num_feature":"33","num_nodes":"45","size_leaf_vector":"1"}},{"base_weights":[1.2349041E2,-9.723265E2,4.586302E3,-1.3251512E3,-2.1873477E2,3.087057E3,7.0752026E3,-1.6492185E3,-1.0940615E3,-5.855784E2,2.5349072E2,1.8594303E3,3.883215E3,3.648033E2,8.1807817E3,-6.602806E1,-1.6998953E3,-1.4332264E3,-9.5620795E2,-4.2200705E2,-7.781846E1,7.65006E1,7.6533594E2,2.6123438E1,2.0265505E3,4.2964468E2,1.4868588E2,8.863278E2,2.3841504E2,-1.732421E2,-4.4337696E1,-3.953076E1,-1.4974876E2,-7.072667E1,-1.0884894E3,-4.5110938E2,-1.7462957E1,1.8234277E2,-2.0722998E2,9.440899E1,1.14537115E1,2.373107E2,1.0867173E2,-3.7071354E1,-1.1445336E2,-1.2237891E1,-4.7174454E1,2.6496632E1,-9.876758E0,-3.7950196E0,-2.5100653E1],"categories":[],"categories_nodes":[],"categories_segments":[],"categories_sizes":[],"default_left":[0,0,0,0,0,0,0,0,0,0,0,0,1,0,0,0,0,0,0,1,0,0,0,0,0,0,0,0,0,0,0,0,0,0,0,0,0,1,0,0,0,0,0,0,0,0,0,0,0,0,0],"id":15,"left_children":[1,3,5,7,9,11,13,15,17,19,21,23,25,-1,27,-1,29,31,33,35,-1,37,39,-1,41,-1,-1,-1,-1,-1,-1,-1,-1,-1,43,45,-1,47,49,-1,-1,-1,-1,-1,-1,-1,-1,-1,-1,-1,-1],"loss_changes":[6.451049E8,2.7894032E7,7.517677E7,3.58764E6,6.2115905E6,1.0372352E7,4.25728E6,2.80848E5,7.33512E5,3.01698E5,1.3909162E6,1.874412E6,3.514288E6,0E0,2.605728E6,0E0,2.9448E5,1.41708E5,3.8271E5,1.481325E4,0E0,4.281855E5,3.5719775E5,0E0,2.6748E4,0E0,0E0,0E0,0E0,0E0,0E0,0E0,0E0,0E0,4.20476E5,1.6886E4,0E0,2.5843344E5,2.0116188E4,0E0,0E0,0E0,0E0,0E0,0E0,0E0,0E0,0E0,0E0,0E0,0E0],"parents":[2147483647,0,0,1,1,2,2,3,3,4,4,5,5,6,6,7,7,8,8,9,9,10,10,11,11,12,12,14,14,16,16,17,17,18,18,19,19,21,21,22,22,24,24,34,34,35,35,37,37,38,38],"right_children":[2,4,6,8,10,12,14,16,18,20,22,24,26,-1,28,-1,30,32,34,36,-1,38,40,-1,42,-1,-1,-1,-1,-1,-1,-1,-1,-1,44,46,-1,48,50,-1,-1,-1,-1,-1,-1,-1,-1,-1,-1,-1,-1],"split_conditions":[2.4850164E4,1.5523422E4,3.9540355E4,1.663762E4,1.8216596E4,2.2809285E4,7.73681E3,1.2E1,1.3527105E4,1.3E1,2.1815234E4,2.728E0,2.236688E4,3.648033E2,1.0164E2,-6.602806E1,9.8E0,3.639E1,1.2E1,2.6054248E4,-7.781846E1,1.6E1,2.735E0,2.6123438E1,1.882029E4,4.2964468E2,1.4868588E2,8.863278E2,2.3841504E2,-1.732421E2,-4.4337696E1,-3.953076E1,-1.4974876E2,-7.072667E1,1.536045E4,4.663E1,-1.7462957E1,4.159555E4,4.984E1,9.440899E1,1.14537115E1,2.373107E2,1.0867173E2,-3.7071354E1,-1.1445336E2,-1.2237891E1,-4.7174454E1,2.6496632E1,-9.876758E0,-3.7950196E0,-2.5100653E1],"split_indices":[31,31,31,19,31,22,26,32,31,32,31,3,19,0,6,0,6,2,32,25,0,32,3,0,19,0,0,0,0,0,0,0,0,0,21,2,0,19,2,0,0,0,0,0,0,0,0,0,0,0,0],"split_type":[0,0,0,0,0,0,0,0,0,0,0,0,0,0,0,0,0,0,0,0,0,0,0,0,0,0,0,0,0,0,0,0,0,0,0,0,0,0,0,0,0,0,0,0,0,0,0,0,0,0,0],"sum_hessian":[1.3E2,1.05E2,2.5E1,7.1E1,3.4E1,1.7E1,8E0,2.7E1,4.4E1,1.9E1,1.5E1,8E0,9E0,3E0,5E0,2E0,2.5E1,1E1,3.4E1,1.2E1,7E0,1.2E1,3E0,1E0,7E0,7E0,2E0,4E0,1E0,2.4E1,1E0,1E0,9E0,1.4E1,2E1,1E1,2E0,9E0,3E0,2E0,1E0,4E0,3E0,2E0,1.8E1,1E0,9E0,7E0,2E0,1E0,2E0],"tree_param":{"num_deleted":"0","num_feature":"33","num_nodes":"51","size_leaf_vector":"1"}},{"base_weights":[1.2399423E2,-8.822283E2,4.221517E3,-1.0931825E3,1.4125606E2,2.831153E3,6.533187E3,-1.3413417E3,-8.0228705E2,-1.1075562E1,7.1526855E2,3.931462E2,1.9533768E3,2.735914E2,7.227277E2,-1.0721191E3,-1.5863063E3,-1.0343459E2,-5.3376056E2,-1.8710303E2,1.4662392E2,8.8115105E1,1.0881055E1,1.1521016E3,2.5626352E2,-1.1087781E3,-4.336947E1,-1.6217297E2,-4.21208E1,-5.4836926E2,-1.1348926E1,-2.5072713E2,1.2913281E1,2.8155923E2,-9.243506E1,2.4817286E1,1.2613942E2,-1.1505896E2,-4.465039E1,-4.2608204E1,-6.938257E1,-3.1469923E1,-1.2407325E1,6.0251956E0,3.1377033E1,-2.8489585E0,-1.4213574E1],"categories":[],"categories_nodes":[],"categories_segments":[],"categories_sizes":[],"default_left":[0,0,0,0,0,0,0,0,0,0,0,0,0,0,0,1,0,0,0,0,0,0,0,0,0,0,0,0,0,1,0,0,0,0,0,0,0,0,0,0,0,0,0,0,0,0,0],"id":16,"left_children":[1,3,5,7,9,11,13,15,17,19,21,-1,23,-1,-1,25,27,-1,29,31,33,-1,-1,35,-1,37,-1,-1,-1,39,-1,41,-1,43,45,-1,-1,-1,-1,-1,-1,-1,-1,-1,-1,-1,-1],"loss_changes":[5.438399E8,2.3040704E7,6.506915E7,5.276448E6,1.6692869E6,9.705232E6,3.94768E6,1.332992E6,2.127406E6,4.715848E5,3.0652462E5,0E0,2.905788E6,0E0,0E0,1.04226E5,2.24892E5,0E0,7.28375E4,1.9333881E5,3.1634347E5,0E0,0E0,3.78506E5,0E0,1.23146E5,0E0,0E0,0E0,7.79095E4,0E0,1.76705E4,0E0,2.3866E4,8.663145E3,0E0,0E0,0E0,0E0,0E0,0E0,0E0,0E0,0E0,0E0,0E0,0E0],"parents":[2147483647,0,0,1,1,2,2,3,3,4,4,5,5,6,6,7,7,8,8,9,9,10,10,12,12,15,15,16,16,18,18,19,19,20,20,23,23,25,25,29,29,31,31,33,33,34,34],"right_children":[2,4,6,8,10,12,14,16,18,20,22,-1,24,-1,-1,26,28,-1,30,32,34,-1,-1,36,-1,38,-1,-1,-1,40,-1,42,-1,44,46,-1,-1,-1,-1,-1,-1,-1,-1,-1,-1,-1,-1],"split_conditions":[2.4850164E4,1.7567973E4,3.9540355E4,1.440006E4,2.1815234E4,1.3E1,2.5006783E4,1.4E1,2.4197426E4,1.9596299E4,2.735E0,3.931462E2,2.2809285E4,2.735914E2,7.227277E2,1.3906317E4,6.347E2,-1.0343459E2,2.2174268E2,1.03829E4,1.5E1,8.8115105E1,1.0881055E1,2.728E0,2.5626352E2,3.5E1,-4.336947E1,-1.6217297E2,-4.21208E1,1.2376067E4,-1.1348926E1,1.954939E4,1.2913281E1,2.011303E4,3.285E0,2.4817286E1,1.2613942E2,-1.1505896E2,-4.465039E1,-4.2608204E1,-6.938257E1,-3.1469923E1,-1.2407325E1,6.0251956E0,3.1377033E1,-2.8489585E0,-1.4213574E1],"split_indices":[31,31,31,31,31,32,28,32,25,31,3,0,22,0,0,29,6,0,9,4,32,0,0,3,0,11,0,0,0,26,0,18,0,17,3,0,0,0,0,0,0,0,0,0,0,0,0],"split_type":[0,0,0,0,0,0,0,0,0,0,0,0,0,0,0,0,0,0,0,0,0,0,0,0,0,0,0,0,0,0,0,0,0,0,0,0,0,0,0,0,0,0,0,0,0,0,0],"sum_hessian":[1.3E2,1.05E2,2.5E1,8.7E1,1.8E1,1.7E1,8E0,4.5E1,4.2E1,1.5E1,3E0,6E0,1.1E1,2E0,6E0,2.4E1,2.1E1,2.1E1,2.1E1,7E0,8E0,2E0,1E0,6E0,5E0,2.2E1,2E0,2E1,1E0,2E1,1E0,6E0,1E0,5E0,3E0,1E0,5E0,2E1,2E0,1.3E1,7E0,3E0,3E0,1E0,4E0,2E0,1E0],"tree_param":{"num_deleted":"0","num_feature":"33","num_nodes":"47","size_leaf_vector":"1"}},{"base_weights":[1.2114419E2,-7.99154E2,3.8684697E3,-1.0927681E3,-1.723149E2,2.592504E3,5.990572E3,-8.7772656E2,-1.3341411E3,-4.1304077E2,3.2349643E2,3.594481E2,1.7919751E3,3.056953E2,6.9478887E3,-1.1497987E3,-7.528711E2,-1.4644086E3,-7.602876E1,-9.410254E1,-4.9201913E2,1.3422157E2,6.684907E2,1.0584573E3,2.3490833E2,7.5760345E2,1.9035802E2,-3.180127E1,-1.2011761E2,-9.172425E1,-5.832005E2,-1.491491E2,-4.072163E1,-1.6199337E1,1.2267578E1,-5.307452E2,-1.085651E1,2.5963705E2,-8.745703E1,8.224075E1,1.0337012E1,2.3576466E1,1.1562787E2,-6.048224E1,-1.07814455E1,-5.487826E1,-1.2107325E1,2.9173634E1,4.9570312E0,-2.6589844E0,-1.350293E1],"categories":[],"categories_nodes":[],"categories_segments":[],"categories_sizes":[],"default_left":[0,0,0,0,0,0,0,0,0,0,0,0,0,0,0,0,0,1,0,0,0,0,0,0,0,0,0,0,0,0,0,0,0,0,0,0,0,0,0,0,0,0,0,0,0,0,0,0,0,0,0],"id":17,"left_children":[1,3,5,7,9,11,13,15,17,19,21,-1,23,-1,25,27,29,31,-1,33,35,37,39,41,-1,-1,-1,-1,-1,-1,43,-1,-1,-1,-1,45,-1,47,49,-1,-1,-1,-1,-1,-1,-1,-1,-1,-1,-1,-1],"loss_changes":[4.5486557E8,1.9320864E7,5.487037E7,2.566168E6,4.3110285E6,7.996784E6,4.036256E6,5.27108E5,1.278772E6,5.5824075E5,6.938591E5,0E0,2.41738E6,0E0,4.58976E6,8.8095E4,3.29622E5,1.0842E5,0E0,1.081762E5,2.24523E5,2.7292444E5,2.6291388E5,2.907285E5,0E0,0E0,0E0,0E0,0E0,0E0,1.19809E5,0E0,0E0,0E0,0E0,5.91775E4,0E0,2.59965E4,7.991949E3,0E0,0E0,0E0,0E0,0E0,0E0,0E0,0E0,0E0,0E0,0E0,0E0],"parents":[2147483647,0,0,1,1,2,2,3,3,4,4,5,5,6,6,7,7,8,8,9,9,10,10,12,12,14,14,15,15,16,16,17,17,19,19,20,20,21,21,22,22,23,23,30,30,35,35,37,37,38,38],"right_children":[2,4,6,8,10,12,14,16,18,20,22,-1,24,-1,26,28,30,32,-1,34,36,38,40,42,-1,-1,-1,-1,-1,-1,44,-1,-1,-1,-1,46,-1,48,50,-1,-1,-1,-1,-1,-1,-1,-1,-1,-1,-1,-1],"split_conditions":[2.4850164E4,1.5523422E4,3.9540355E4,1.4E1,1.9596299E4,1.3E1,7.73681E3,1.3549327E4,9.8E0,5.725E1,2.1815234E4,3.594481E2,2.2809285E4,3.056953E2,1.0164E2,3.639E1,2.4197426E4,1.768876E4,-7.602876E1,5.498E1,3.637E0,1.5E1,2.735E0,2.728E0,2.3490833E2,7.5760345E2,1.9035802E2,-3.180127E1,-1.2011761E2,-9.172425E1,2.2172566E2,-1.491491E2,-4.072163E1,-1.6199337E1,1.2267578E1,6.455E1,-1.085651E1,1E0,3.285E0,8.224075E1,1.0337012E1,2.3576466E1,1.1562787E2,-6.048224E1,-1.07814455E1,-5.487826E1,-1.2107325E1,2.9173634E1,4.9570312E0,-2.6589844E0,-1.350293E1],"split_indices":[31,31,31,32,31,32,26,31,6,2,31,0,22,0,6,2,25,21,0,2,3,32,3,3,0,0,0,0,0,0,9,0,0,0,0,6,0,0,3,0,0,0,0,0,0,0,0,0,0,0,0],"split_type":[0,0,0,0,0,0,0,0,0,0,0,0,0,0,0,0,0,0,0,0,0,0,0,0,0,0,0,0,0,0,0,0,0,0,0,0,0,0,0,0,0,0,0,0,0,0,0,0,0,0,0],"sum_hessian":[1.3E2,1.05E2,2.5E1,7.1E1,3.4E1,1.7E1,8E0,4E1,3.1E1,2.3E1,1.1E1,6E0,1.1E1,3E0,5E0,1E1,3E1,2.4E1,7E0,5E0,1.8E1,8E0,3E0,6E0,5E0,4E0,1E0,1E0,9E0,1.3E1,1.7E1,2.3E1,1E0,4E0,1E0,1.6E1,2E0,5E0,3E0,2E0,1E0,1E0,5E0,1.6E1,1E0,1.5E1,1E0,4E0,1E0,2E0,1E0],"tree_param":{"num_deleted":"0","num_feature":"33","num_nodes":"51","size_leaf_vector":"1"}},{"base_weights":[1.1998536E2,-6.245717E2,4.0497876E3,-8.799104E2,5.1163736E2,2.7129421E3,5.5308105E3,-1.0308026E3,-5.0358838E2,6.010577E1,1.1070011E3,3.6181656E2,1.9086022E3,2.8276816E2,6.411094E3,-8.8914856E2,-1.3701317E3,-6.161737E2,-3.2628424E2,1.6050868E2,-1.3264062E2,1.3312363E3,2.1478516E1,7.80196E1,2.1195474E2,6.969953E2,1.8084004E2,-1.0328545E3,-7.0240704E2,-1.407408E2,-3.8685596E1,-6.41916E2,-1.1501953E1,-1.8131407E1,-3.7056946E2,2.6251172E2,-3.2623047E1,-2.4817709E1,-1.9625E1,3.8840332E1,1.4236412E2,-1.086455E2,-4.7983837E1,-9.018328E1,-4.955434E1,-1.8722559E1,-6.6102066E1,-3.895347E1,-1.0942383E1,4.2652345E0,2.9795313E1,-7.489193E0,4.70918E0,-3.3298829E0,-3.9277345E-1],"categories":[],"categories_nodes":[],"categories_segments":[],"categories_sizes":[],"default_left":[0,0,0,0,0,0,0,0,0,0,0,0,0,0,0,0,1,0,0,1,0,0,0,0,0,0,0,0,0,0,0,0,0,0,0,0,0,0,0,0,0,0,0,0,0,0,0,0,0,0,0,0,0,0,0],"id":18,"left_children":[1,3,5,7,9,11,13,15,17,19,21,-1,23,-1,25,27,29,31,33,35,37,39,-1,-1,-1,-1,-1,41,43,-1,-1,45,-1,-1,47,49,51,53,-1,-1,-1,-1,-1,-1,-1,-1,-1,-1,-1,-1,-1,-1,-1,-1,-1],"loss_changes":[3.858304E8,3.2653312E7,2.657312E7,4.648248E6,5.5787985E6,2.559744E6,3.287136E6,1.858056E6,3.578835E5,2.7286984E5,1.514667E6,0E0,4.88628E5,0E0,2.829056E6,5.6264E5,7.8636E4,1.32581E5,1.6271E4,1.8586414E5,2.9422273E4,5.691E4,0E0,0E0,0E0,0E0,0E0,2.19726E5,5.43197E5,0E0,0E0,6.5405E3,0E0,0E0,1.949625E3,3.4044344E4,1.7004625E4,4.007224E2,0E0,0E0,0E0,0E0,0E0,0E0,0E0,0E0,0E0,0E0,0E0,0E0,0E0,0E0,0E0,0E0,0E0],"parents":[2147483647,0,0,1,1,2,2,3,3,4,4,5,5,6,6,7,7,8,8,9,9,10,10,12,12,14,14,15,15,16,16,17,17,18,18,19,19,20,20,21,21,27,27,28,28,31,31,34,34,35,35,36,36,37,37],"right_children":[2,4,6,8,10,12,14,16,18,20,22,-1,24,-1,26,28,30,32,34,36,38,40,-1,-1,-1,-1,-1,42,44,-1,-1,46,-1,-1,48,50,52,54,-1,-1,-1,-1,-1,-1,-1,-1,-1,-1,-1,-1,-1,-1,-1,-1,-1],"split_conditions":[2.6941715E4,1.8216596E4,3.9540355E4,1.5105565E4,2.1815234E4,1.5E1,7.73681E3,1.5E1,4.684587E4,1.5E1,4.2E1,3.6181656E2,2.338803E4,2.8276816E2,1.0164E2,1.3981173E4,1.768876E4,2.6036E2,2.012422E4,2.104339E4,3.285E0,2.1109636E2,2.1478516E1,7.80196E1,2.1195474E2,6.969953E2,1.8084004E2,3.698849E4,1.853548E4,-1.407408E2,-3.8685596E1,5.145E1,-1.1501953E1,-1.8131407E1,6.29E1,1.81642E4,1E0,4.984E1,-1.9625E1,3.8840332E1,1.4236412E2,-1.086455E2,-4.7983837E1,-9.018328E1,-4.955434E1,-1.8722559E1,-6.6102066E1,-3.895347E1,-1.0942383E1,4.2652345E0,2.9795313E1,-7.489193E0,4.70918E0,-3.3298829E0,-3.9277345E-1],"split_indices":[31,31,31,31,31,11,26,32,27,32,11,0,17,0,6,31,21,6,17,17,3,9,0,0,0,0,0,17,20,0,0,2,0,0,2,18,0,2,0,0,0,0,0,0,0,0,0,0,0,0,0,0,0,0,0],"split_type":[0,0,0,0,0,0,0,0,0,0,0,0,0,0,0,0,0,0,0,0,0,0,0,0,0,0,0,0,0,0,0,0,0,0,0,0,0,0,0,0,0,0,0,0,0,0,0,0,0,0,0,0,0,0,0],"sum_hessian":[1.3E2,1.1E2,2E1,9E1,2E1,1.2E1,8E0,6.3E1,2.7E1,1.2E1,8E0,4E0,8E0,3E0,5E0,4.7E1,1.6E1,1.5E1,1.2E1,8E0,4E0,6E0,2E0,2E0,6E0,4E0,1E0,2.4E1,2.3E1,1.5E1,1E0,1.4E1,1E0,4E0,8E0,5E0,3E0,2E0,2E0,1E0,5E0,2.1E1,3E0,1E1,1.3E1,1E0,1.3E1,7E0,1E0,1E0,4E0,2E0,1E0,1E0,1E0],"tree_param":{"num_deleted":"0","num_feature":"33","num_nodes":"55","size_leaf_vector":"1"}},{"base_weights":[1.1854283E2,-5.6598444E2,3.7311133E3,-7.989542E2,4.7050317E2,2.4917861E3,5.1066846E3,-1.0725854E3,-6.1691833E2,5.470538E1,1.01882184E3,2.7951758E3,1.11036575E2,2.6156046E2,5.9162905E3,-1.2533402E2,-7.480231E2,-3.7961713E2,-8.0369946E2,1.4793338E2,-1.240461E2,1.2239998E3,2.0046614E1,3.1414204E3,9.401315E1,6.4123566E2,1.7179805E2,-4.435895E1,-8.558809E1,-4.433357E2,-2.4663229E1,-9.7723564E1,-5.231745E2,2.419375E2,-3.0056152E1,-2.3576822E1,-1.8316668E1,1.5031725E2,6.3882717E1,3.37612E2,7.492617E1,-4.970062E1,-2.6210546E1,-7.7646484E0,-5.514731E1,4.0519533E0,2.7411718E1,-6.9899745E0,4.4737306E0,-3.163379E0,-3.7314454E-1],"categories":[],"categories_nodes":[],"categories_segments":[],"categories_sizes":[],"default_left":[0,0,0,0,0,0,0,0,0,0,0,0,0,0,0,0,0,0,0,1,0,1,0,1,0,0,0,0,0,1,0,0,0,0,0,0,0,0,0,0,0,0,0,0,0,0,0,0,0,0,0],"id":19,"left_children":[1,3,5,7,9,11,13,15,17,19,21,23,-1,-1,25,-1,27,29,31,33,35,37,-1,39,-1,-1,-1,-1,-1,41,-1,-1,43,45,47,49,-1,-1,-1,-1,-1,-1,-1,-1,-1,-1,-1,-1,-1,-1,-1],"loss_changes":[3.2606205E8,2.7179112E7,2.307568E7,3.871076E6,4.7320485E6,2.344736E6,2.676464E6,1.115788E6,2.221336E6,2.3499094E5,1.265806E6,3.469648E6,0E0,0E0,1.47952E6,0E0,1.12874E5,1.1944625E5,9.97852E5,1.5785747E5,2.5380516E4,1.83283E5,0E0,1.961912E6,0E0,0E0,0E0,0E0,0E0,3.508625E4,0E0,0E0,1.3368925E5,2.7782281E4,1.5047284E4,3.6164087E2,0E0,0E0,0E0,0E0,0E0,0E0,0E0,0E0,0E0,0E0,0E0,0E0,0E0,0E0,0E0],"parents":[2147483647,0,0,1,1,2,2,3,3,4,4,5,5,6,6,7,7,8,8,9,9,10,10,11,11,14,14,16,16,17,17,18,18,19,19,20,20,21,21,23,23,29,29,32,32,33,33,34,34,35,35],"right_children":[2,4,6,8,10,12,14,16,18,20,22,24,-1,-1,26,-1,28,30,32,34,36,38,-1,40,-1,-1,-1,-1,-1,42,-1,-1,44,46,48,50,-1,-1,-1,-1,-1,-1,-1,-1,-1,-1,-1,-1,-1,-1,-1],"split_conditions":[2.6941715E4,1.8216596E4,3.9540355E4,1.4125474E4,2.1815234E4,3.346E0,7.73681E3,2.5682484E4,1.3E1,1.5E1,4.2E1,4.5E1,1.11036575E2,2.6156046E2,1.0164E2,-1.2533402E2,2.9254902E4,1.5638434E4,1.7158857E4,2.104339E4,3.285E0,1.940354E4,2.0046614E1,2.338803E4,9.401315E1,6.4123566E2,1.7179805E2,-4.435895E1,-8.558809E1,2.949306E4,-2.4663229E1,-9.7723564E1,1.7260285E4,1.81642E4,1E0,4.984E1,-1.8316668E1,1.5031725E2,6.3882717E1,3.37612E2,7.492617E1,-4.970062E1,-2.6210546E1,-7.7646484E0,-5.514731E1,4.0519533E0,2.7411718E1,-6.9899745E0,4.4737306E0,-3.163379E0,-3.7314454E-1],"split_indices":[31,31,31,31,31,3,26,28,32,32,11,11,0,0,6,0,28,31,22,17,3,19,0,19,0,0,0,0,0,22,0,0,22,18,0,2,0,0,0,0,0,0,0,0,0,0,0,0,0,0,0],"split_type":[0,0,0,0,0,0,0,0,0,0,0,0,0,0,0,0,0,0,0,0,0,0,0,0,0,0,0,0,0,0,0,0,0,0,0,0,0,0,0,0,0,0,0,0,0,0,0,0,0,0,0],"sum_hessian":[1.3E2,1.1E2,2E1,9E1,2E1,1.2E1,8E0,3.4E1,5.6E1,1.2E1,8E0,9E0,3E0,3E0,5E0,2E1,1.4E1,2.6E1,3E1,8E0,4E0,6E0,2E0,7E0,2E0,4E0,1E0,5E0,9E0,1.6E1,1E1,1.7E1,1.3E1,5E0,3E0,2E0,2E0,3E0,3E0,6E0,1E0,1.1E1,5E0,1E0,1.2E1,1E0,4E0,2E0,1E0,1E0,1E0],"tree_param":{"num_deleted":"0","num_feature":"33","num_nodes":"51","size_leaf_vector":"1"}},{"base_weights":[1.1750556E2,-5.1186487E2,3.4385825E3,-7.247346E2,4.3494522E2,2.2901138E3,4.7154165E3,-9.7262067E2,-5.5980927E2,4.978035E1,9.429672E2,3.256171E2,1.6746797E3,2.4194356E2,5.460168E3,-1.0670321E3,-5.206028E1,-3.4537976E2,-7.285121E2,2.3753857E2,-3.0300976E1,1.1322001E3,1.8710157E1,6.598327E1,1.8459123E2,5.899369E2,1.632082E2,-3.4375328E1,-1.1094478E3,-3.843672E2,-1.7907757E1,-8.8494194E1,-4.753514E2,2.8838476E1,4.25E0,-8.734912E1,1.3192774E1,1.390435E2,5.9091503E1,-1.152879E2,-3.92181E1,-4.3935368E1,-2.4009497E1,-7.376367E0,-5.0056866E1,-1.8580469E0,-1.5147265E1],"categories":[],"categories_nodes":[],"categories_segments":[],"categories_sizes":[],"default_left":[0,0,0,0,0,0,0,1,0,0,0,0,0,0,0,0,0,1,0,0,1,1,0,0,0,0,0,0,0,1,0,0,0,0,0,0,0,0,0,0,0,0,0,0,0,0,0],"id":20,"left_children":[1,3,5,7,9,11,13,15,17,19,21,-1,23,-1,25,27,-1,29,31,33,35,37,-1,-1,-1,-1,-1,-1,39,41,-1,-1,43,-1,-1,45,-1,-1,-1,-1,-1,-1,-1,-1,-1,-1,-1],"loss_changes":[2.7557466E8,2.268696E7,1.9995648E7,3.175848E6,4.0621752E6,2.276032E6,2.17888E6,9.38148E5,1.810354E6,2.026647E5,1.0754755E6,0E0,5.19758E5,0E0,4.59536E5,4.77614E5,0E0,1.0622825E5,8.06999E5,2.7411516E4,1.0407224E5,1.56822E5,0E0,0E0,0E0,0E0,0E0,0E0,3.5781E5,6.110675E4,0E0,0E0,1.048535E5,0E0,0E0,3.2463078E4,0E0,0E0,0E0,0E0,0E0,0E0,0E0,0E0,0E0,0E0,0E0],"parents":[2147483647,0,0,1,1,2,2,3,3,4,4,5,5,6,6,7,7,8,8,9,9,10,10,12,12,14,14,15,15,17,17,18,18,19,19,20,20,21,21,28,28,29,29,32,32,35,35],"right_children":[2,4,6,8,10,12,14,16,18,20,22,-1,24,-1,26,28,-1,30,32,34,36,38,-1,-1,-1,-1,-1,-1,40,42,-1,-1,44,-1,-1,46,-1,-1,-1,-1,-1,-1,-1,-1,-1,-1,-1],"split_conditions":[2.6941715E4,1.8216596E4,3.9540355E4,1.4125474E4,2.1815234E4,8E0,7.73681E3,1.73597E4,1.3E1,4.901E1,4.2E1,3.256171E2,2.338803E4,2.4194356E2,1.0164E2,4.455E1,-5.206028E1,2.104339E4,1.7158857E4,1E0,3.330592E4,1.940354E4,1.8710157E1,6.598327E1,1.8459123E2,5.899369E2,1.632082E2,-3.4375328E1,2.33518E4,2.387379E4,-1.7907757E1,-8.8494194E1,1.7260285E4,2.8838476E1,4.25E0,3.285E0,1.3192774E1,1.390435E2,5.9091503E1,-1.152879E2,-3.92181E1,-4.3935368E1,-2.4009497E1,-7.376367E0,-5.0056866E1,-1.8580469E0,-1.5147265E1],"split_indices":[31,31,31,31,31,11,26,21,32,2,11,0,17,0,6,2,0,21,22,0,20,19,0,0,0,0,0,0,17,19,0,0,22,0,0,3,0,0,0,0,0,0,0,0,0,0,0],"split_type":[0,0,0,0,0,0,0,0,0,0,0,0,0,0,0,0,0,0,0,0,0,0,0,0,0,0,0,0,0,0,0,0,0,0,0,0,0,0,0,0,0,0,0,0,0,0,0],"sum_hessian":[1.3E2,1.1E2,2E1,9E1,2E1,1.2E1,8E0,3.4E1,5.6E1,1.2E1,8E0,3E0,9E0,3E0,5E0,2.7E1,7E0,2.6E1,3E1,3E0,9E0,6E0,2E0,2E0,7E0,4E0,1E0,2E0,2.5E1,2E1,6E0,1.7E1,1.3E1,2E0,1E0,7E0,2E0,3E0,3E0,2.3E1,2E0,1.3E1,7E0,1E0,1.2E1,4E0,3E0],"tree_param":{"num_deleted":"0","num_feature":"33","num_nodes":"47","size_leaf_vector":"1"}},{"base_weights":[1.1601969E2,-4.627199E2,3.169547E3,-6.5745593E2,4.0317047E2,2.1054255E3,4.3544395E3,-7.650029E2,-3.5916534E2,4.7053936E1,8.7276434E2,3.011958E2,1.5322701E3,1.1541133E2,4.6102164E2,-6.7258E2,-1.09006714E2,-4.906131E1,-2.6071576E2,1.2863933E2,-1.0921055E2,1.0472852E3,1.746276E1,6.1584442E1,1.684396E3,-7.9980835E2,-5.3532074E2,-8.925131E0,-2.776276E2,1.909241E2,-5.9571614E0,-2.1159506E1,-1.6085808E1,1.2861528E2,5.465962E1,1.7874805E2,4.8140236E1,-8.3122734E1,-2.8185352E1,-5.7658825E1,-2.2191916E1,-1.0702409E1,-2.9564167E1,1.0579805E1,2.6915953E1,-2.9123046E0,-2.616211E-1],"categories":[],"categories_nodes":[],"categories_segments":[],"categories_sizes":[],"default_left":[0,0,0,0,0,0,0,0,0,0,0,0,0,0,0,0,0,0,0,1,0,1,0,0,0,1,0,0,0,0,0,0,0,0,0,0,0,0,0,0,0,0,0,0,0,0,0],"id":21,"left_children":[1,3,5,7,9,11,13,15,17,19,21,-1,23,-1,-1,25,-1,-1,27,29,31,33,-1,-1,35,37,39,-1,41,43,-1,45,-1,-1,-1,-1,-1,-1,-1,-1,-1,-1,-1,-1,-1,-1,-1],"loss_changes":[2.3296946E8,1.8981892E7,1.731032E7,2.64454E6,3.470766E6,2.139456E6,2.0464E6,1.249708E6,2.0855475E5,1.7978445E5,9.1367E5,0E0,3.56796E5,0E0,0E0,5.14864E5,0E0,0E0,2.4517625E4,1.1687775E5,1.9334414E4,1.341825E5,0E0,0E0,1.31582E5,1.8883E5,2.4711E5,0E0,1.445825E4,1.8142547E4,0E0,3.6681885E2,0E0,0E0,0E0,0E0,0E0,0E0,0E0,0E0,0E0,0E0,0E0,0E0,0E0,0E0,0E0],"parents":[2147483647,0,0,1,1,2,2,3,3,4,4,5,5,6,6,7,7,8,8,9,9,10,10,12,12,15,15,18,18,19,19,20,20,21,21,24,24,25,25,26,26,28,28,29,29,31,31],"right_children":[2,4,6,8,10,12,14,16,18,20,22,-1,24,-1,-1,26,-1,-1,28,30,32,34,-1,-1,36,38,40,-1,42,44,-1,46,-1,-1,-1,-1,-1,-1,-1,-1,-1,-1,-1,-1,-1,-1,-1],"split_conditions":[2.6941715E4,1.8216596E4,3.9540355E4,1.5141867E4,2.1815234E4,8E0,6.7404805E3,1.6E1,2.4197426E4,1.5E1,4.2E1,3.011958E2,2.338803E4,1.1541133E2,4.6102164E2,1.3981173E4,-1.09006714E2,-4.906131E1,4.663E1,4.159555E4,3.285E0,1.940354E4,1.746276E1,6.1584442E1,3.814E0,1.3544536E4,3.594E0,-8.925131E0,1.940354E4,2.554304E4,-5.9571614E0,4.984E1,-1.6085808E1,1.2861528E2,5.465962E1,1.7874805E2,4.8140236E1,-8.3122734E1,-2.8185352E1,-5.7658825E1,-2.2191916E1,-1.0702409E1,-2.9564167E1,1.0579805E1,2.6915953E1,-2.9123046E0,-2.616211E-1],"split_indices":[31,31,31,31,31,11,29,32,25,32,11,0,17,0,0,31,0,0,2,19,3,19,0,0,3,29,3,0,18,19,0,2,0,0,0,0,0,0,0,0,0,0,0,0,0,0,0],"split_type":[0,0,0,0,0,0,0,0,0,0,0,0,0,0,0,0,0,0,0,0,0,0,0,0,0,0,0,0,0,0,0,0,0,0,0,0,0,0,0,0,0,0,0,0,0,0,0],"sum_hessian":[1.3E2,1.1E2,2E1,9E1,2E1,1.2E1,8E0,6.5E1,2.5E1,1.2E1,8E0,3E0,9E0,1E0,7E0,5.3E1,1.2E1,9E0,1.6E1,8E0,4E0,6E0,2E0,2E0,7E0,2.5E1,2.8E1,2E0,1.4E1,6E0,2E0,2E0,2E0,3E0,3E0,6E0,1E0,2.3E1,2E0,2.4E1,4E0,2E0,1.2E1,4E0,2E0,1E0,1E0],"tree_param":{"num_deleted":"0","num_feature":"33","num_nodes":"47","size_leaf_vector":"1"}},{"base_weights":[1.11903824E2,-4.1811835E2,2.9081208E3,-5.960887E2,3.7299673E2,2.2244512E3,4.6509738E2,-4.5618576E2,-7.971574E2,4.329297E1,8.0779144E2,3.2393274E2,1.6630027E3,-5.672578E2,-2.9576608E2,-1.1688108E2,-6.6714417E2,1.1927951E2,-1.021414E2,9.68738E2,1.6298567E1,9.4092026E1,2.1475134E2,-5.897949E0,-5.8175134E2,-3.3767514E2,-1.645E1,-7.0385724E2,-2.6172316E1,1.9502441E2,-2.4157715E1,-2.0101562E1,-1.50134115E1,1.1896905E2,5.056011E1,-7.461426E0,-5.961688E1,-4.8991213E0,-3.517747E1,-7.2662605E1,-2.870879E1,3.4131837E0,2.2037657E1,-5.560026E0,3.508496E0,-2.7666993E0,-2.4853516E-1],"categories":[],"categories_nodes":[],"categories_segments":[],"categories_sizes":[],"default_left":[0,0,0,0,0,0,0,0,0,0,0,0,0,0,1,0,0,1,0,1,0,0,0,0,0,0,0,0,0,0,0,0,0,0,0,0,0,0,0,0,0,0,0,0,0,0,0],"id":22,"left_children":[1,3,5,7,9,11,-1,13,15,17,19,-1,21,23,25,-1,27,29,31,33,-1,-1,-1,-1,35,37,-1,39,-1,41,43,45,-1,-1,-1,-1,-1,-1,-1,-1,-1,-1,-1,-1,-1,-1,-1],"loss_changes":[1.953654E8,1.5850584E7,1.4676384E7,2.19619E6,2.9754505E6,4.2996E6,0E0,8.30041E5,9.5975E5,1.558471E5,7.76123E5,0E0,2.5275E6,2.01424E5,8.19835E4,0E0,2.47427E5,1.02493086E5,1.666864E4,1.148105E5,0E0,0E0,0E0,0E0,1.82177E5,5.6031875E4,0E0,3.8117E4,0E0,1.6952E4,9.401695E3,3.3106055E2,0E0,0E0,0E0,0E0,0E0,0E0,0E0,0E0,0E0,0E0,0E0,0E0,0E0,0E0,0E0],"parents":[2147483647,0,0,1,1,2,2,3,3,4,4,5,5,7,7,8,8,9,9,10,10,12,12,13,13,14,14,16,16,17,17,18,18,19,19,24,24,25,25,27,27,29,29,30,30,31,31],"right_children":[2,4,6,8,10,12,-1,14,16,18,20,-1,22,24,26,-1,28,30,32,34,-1,-1,-1,-1,36,38,-1,40,-1,42,44,46,-1,-1,-1,-1,-1,-1,-1,-1,-1,-1,-1,-1,-1,-1,-1],"split_conditions":[2.6941715E4,1.8216596E4,4.960787E4,1.4E1,2.1815234E4,8E0,4.6509738E2,1.458939E4,1.3957566E4,1.5E1,4.2E1,3.2393274E2,3.3754375E4,1.536045E4,2.104339E4,-1.1688108E2,8.3514E3,2.104339E4,3.285E0,1.940354E4,1.6298567E1,9.4092026E1,2.1475134E2,-5.897949E0,1.55364E4,4.663E1,-1.645E1,3.9E1,-2.6172316E1,1.81642E4,1E0,4.984E1,-1.50134115E1,1.1896905E2,5.056011E1,-7.461426E0,-5.961688E1,-4.8991213E0,-3.517747E1,-7.2662605E1,-2.870879E1,3.4131837E0,2.2037657E1,-5.560026E0,3.508496E0,-2.7666993E0,-2.4853516E-1],"split_indices":[31,31,31,32,31,11,0,31,31,32,11,0,31,21,21,0,4,17,3,19,0,0,0,0,17,2,0,11,0,18,0,2,0,0,0,0,0,0,0,0,0,0,0,0,0,0,0],"split_type":[0,0,0,0,0,0,0,0,0,0,0,0,0,0,0,0,0,0,0,0,0,0,0,0,0,0,0,0,0,0,0,0,0,0,0,0,0,0,0,0,0,0,0,0,0,0,0],"sum_hessian":[1.3E2,1.1E2,2E1,9E1,2E1,1.6E1,4E0,5.5E1,3.5E1,1.2E1,8E0,4E0,1.2E1,3.1E1,2.4E1,7E0,2.8E1,8E0,4E0,6E0,2E0,6E0,6E0,1E0,3E1,1.7E1,7E0,2.5E1,3E0,5E0,3E0,2E0,2E0,3E0,3E0,1E0,2.9E1,1E0,1.6E1,2.3E1,2E0,1E0,4E0,2E0,1E0,1E0,1E0],"tree_param":{"num_deleted":"0","num_feature":"33","num_nodes":"47","size_leaf_vector":"1"}},{"base_weights":[1.0769932E2,-3.2240216E2,3.010874E3,-4.7263773E2,8.9272595E2,3.3663188E3,1.0140987E2,-6.1136194E2,-1.4573828E2,1.2442598E2,5.1748486E2,1.8448737E3,4.2767935E3,-5.359979E2,-9.1216805E1,-2.5877637E2,3.93771E1,5.120215E0,5.767821E1,3.681924E1,2.0296217E2,4.5413092E2,1.2125918E2,-6.569708E2,-4.308181E2,-1.7289258E2,-3.659905E1,1.940586E2,-2.6433203E1,-6.96746E1,-2.64021E1,-4.6798813E1,-1.7316504E1,-1.7982016E1,-4.488086E0,2.365241E1,3.3331056E0,-7.106177E0,1.0138737E1],"categories":[],"categories_nodes":[],"categories_segments":[],"categories_sizes":[],"default_left":[0,0,0,0,0,0,0,0,0,0,0,0,0,0,0,0,0,0,0,0,0,0,0,0,0,0,0,0,1,0,0,0,0,0,0,0,0,0,0],"id":23,"left_children":[1,3,5,7,9,11,-1,13,15,-1,17,19,21,23,-1,25,27,-1,-1,-1,-1,-1,-1,29,31,33,-1,35,37,-1,-1,-1,-1,-1,-1,-1,-1,-1,-1],"loss_changes":[1.6454512E8,2.1415816E7,8.651872E6,4.581836E6,1.070944E6,1.1503168E7,0E0,1.143316E6,6.797928E5,0E0,1.916615E5,1.162408E6,9.77488E5,4.804E5,0E0,1.20882E5,1.3746486E5,0E0,0E0,0E0,0E0,0E0,0E0,2.22415E5,2.541545E5,3.4580312E3,0E0,1.9417906E4,6.424925E4,0E0,0E0,0E0,0E0,0E0,0E0,0E0,0E0,0E0,0E0],"parents":[2147483647,0,0,1,1,2,2,3,3,4,4,5,5,7,7,8,8,10,10,11,11,12,12,13,13,15,15,16,16,23,23,24,24,25,25,27,27,28,28],"right_children":[2,4,6,8,10,12,-1,14,16,-1,18,20,22,24,-1,26,28,-1,-1,-1,-1,-1,-1,30,32,34,-1,36,38,-1,-1,-1,-1,-1,-1,-1,-1,-1,-1],"split_conditions":[3.2381832E4,2.1815234E4,4.603949E4,1.5523422E4,4.827E1,7.73681E3,1.0140987E2,1.6E1,1.8216596E4,1.2442598E2,1.812252E4,2.338803E4,1.0164E2,1.3981173E4,-9.1216805E1,1.3E1,4.901E1,5.120215E0,5.767821E1,3.681924E1,2.0296217E2,4.5413092E2,1.2125918E2,3.698849E4,3.330592E4,3.561E0,-3.659905E1,1E0,3.330592E4,-6.96746E1,-2.64021E1,-4.6798813E1,-1.7316504E1,-1.7982016E1,-4.488086E0,2.365241E1,3.3331056E0,-7.106177E0,1.0138737E1],"split_indices":[31,31,17,31,2,26,0,32,31,0,19,17,6,31,0,32,2,0,0,0,0,0,0,17,18,3,0,0,20,0,0,0,0,0,0,0,0,0,0],"split_type":[0,0,0,0,0,0,0,0,0,0,0,0,0,0,0,0,0,0,0,0,0,0,0,0,0,0,0,0,0,0,0,0,0,0,0,0,0,0,0],"sum_hessian":[1.3E2,1.14E2,1.6E1,1.02E2,1.2E1,1.3E1,3E0,7.1E1,3.1E1,5E0,7E0,6E0,7E0,5.9E1,1.2E1,1.9E1,1.2E1,1E0,6E0,1E0,5E0,6E0,1E0,2.5E1,3.4E1,1.2E1,7E0,3E0,9E0,2.2E1,3E0,2.9E1,5E0,1.1E1,1E0,2E0,1E0,7E0,2E0],"tree_param":{"num_deleted":"0","num_feature":"33","num_nodes":"39","size_leaf_vector":"1"}},{"base_weights":[1.0321436E2,-2.9097275E2,2.763703E3,-4.2809695E2,8.1785535E2,3.0879133E3,9.38041E1,-5.537177E2,-1.320722E2,1.284751E2,5.493115E2,1.6946417E3,3.9210366E3,-5.0284888E2,-9.542358E1,-2.3585176E2,3.7748047E1,1.3118685E1,6.3744434E1,3.497832E1,1.8604877E2,4.1520523E2,1.1519629E2,-3.884944E2,-5.7688654E2,-1.5733144E2,-3.3396584E1,9.423496E1,-1.1290625E2,-6.1141346E1,-2.8977406E1,-6.5508675E1,-3.2538723E1,-7.466602E0,-1.7466446E1,1.35477295E1,-4.7156253E0,-2.273047E0,-1.3538802E1],"categories":[],"categories_nodes":[],"categories_segments":[],"categories_sizes":[],"default_left":[0,0,0,0,0,0,0,0,0,0,0,0,0,0,0,0,0,0,0,0,0,0,0,0,0,0,0,1,0,0,0,0,0,0,0,0,0,0,0],"id":24,"left_children":[1,3,5,7,9,11,-1,13,15,-1,17,19,21,23,-1,25,27,-1,-1,-1,-1,-1,-1,29,31,33,-1,35,37,-1,-1,-1,-1,-1,-1,-1,-1,-1,-1],"loss_changes":[1.3818784E8,1.7835544E7,7.165672E6,3.757114E6,9.24237E5,9.605984E6,0E0,9.87082E5,5.7286675E5,0E0,2.8488075E5,9.10508E5,3.346E5,3.34676E5,0E0,1.0153575E5,1.2126967E5,0E0,0E0,0E0,0E0,0E0,0E0,4.61021E5,5.34201E5,5.5854375E3,0E0,6.470164E4,5.0318125E3,0E0,0E0,0E0,0E0,0E0,0E0,0E0,0E0,0E0,0E0],"parents":[2147483647,0,0,1,1,2,2,3,3,4,4,5,5,7,7,8,8,10,10,11,11,12,12,13,13,15,15,16,16,23,23,24,24,25,25,27,27,28,28],"right_children":[2,4,6,8,10,12,-1,14,16,-1,18,20,22,24,-1,26,28,-1,-1,-1,-1,-1,-1,30,32,34,-1,36,38,-1,-1,-1,-1,-1,-1,-1,-1,-1,-1],"split_conditions":[3.2381832E4,2.1815234E4,4.603949E4,1.5523422E4,8E0,7.73681E3,9.38041E1,8.783E1,1.8216596E4,1.284751E2,1.81642E4,2.338803E4,1.0164E2,1.3E1,-9.542358E1,1.3E1,1.6E1,1.3118685E1,6.3744434E1,3.497832E1,1.8604877E2,4.1520523E2,1.1519629E2,1.3544314E4,5.759212E4,5.411E1,-3.3396584E1,4.159555E4,4.984E1,-6.1141346E1,-2.8977406E1,-6.5508675E1,-3.2538723E1,-7.466602E0,-1.7466446E1,1.35477295E1,-4.7156253E0,-2.273047E0,-1.3538802E1],"split_indices":[31,31,17,31,11,26,0,2,31,0,19,17,6,32,0,32,32,0,0,0,0,0,0,31,30,2,0,19,2,0,0,0,0,0,0,0,0,0,0],"split_type":[0,0,0,0,0,0,0,0,0,0,0,0,0,0,0,0,0,0,0,0,0,0,0,0,0,0,0,0,0,0,0,0,0,0,0,0,0,0,0],"sum_hessian":[1.3E2,1.14E2,1.6E1,1.02E2,1.2E1,1.3E1,3E0,7.1E1,3.1E1,3E0,9E0,6E0,7E0,6.5E1,6E0,1.9E1,1.2E1,2E0,7E0,1E0,5E0,6E0,1E0,2.8E1,3.7E1,1.2E1,7E0,9E0,3E0,7E0,2.1E1,2.7E1,1E1,3E0,9E0,7E0,2E0,1E0,2E0],"tree_param":{"num_deleted":"0","num_feature":"33","num_nodes":"39","size_leaf_vector":"1"}},{"base_weights":[9.8249E1,-2.6312405E2,2.537052E3,-3.886748E2,7.518646E2,2.8327954E3,8.676875E1,-5.0228506E2,-1.2090564E2,1.18839355E2,5.020666E2,1.5567542E3,3.595232E2,-4.5835098E2,-9.091682E1,-2.151829E2,3.343675E1,1.2244076E1,5.8166798E1,3.3229397E1,1.7054486E2,-4.1523468E2,-6.6259056E1,-1.4351593E2,-3.047439E1,1.7123877E2,-2.5027735E1,-5.8714355E1,-3.5762493E1,-1.5448119E1,-5.547136E0,2.117246E1,2.4890625E0,-6.3383546E0,8.559701E0],"categories":[],"categories_nodes":[],"categories_segments":[],"categories_sizes":[],"default_left":[0,0,0,0,0,0,0,0,0,0,0,0,0,0,0,0,0,0,0,0,0,0,0,1,0,0,1,0,0,0,0,0,0,0,0],"id":25,"left_children":[1,3,5,7,9,11,-1,13,15,-1,17,19,-1,21,-1,23,25,-1,-1,-1,-1,27,-1,29,-1,31,33,-1,-1,-1,-1,-1,-1,-1,-1],"loss_changes":[1.16120184E8,1.4946982E7,5.934976E6,3.072668E6,8.2092E5,8.023712E6,0E0,8.70356E5,4.728263E5,0E0,2.309675E5,7.07782E5,0E0,3.14875E5,0E0,8.463575E4,1.0902053E5,0E0,0E0,0E0,0E0,3.64433E5,0E0,3.9813125E3,0E0,1.8430148E4,4.7856457E4,0E0,0E0,0E0,0E0,0E0,0E0,0E0,0E0],"parents":[2147483647,0,0,1,1,2,2,3,3,4,4,5,5,7,7,8,8,10,10,11,11,13,13,15,15,16,16,21,21,23,23,25,25,26,26],"right_children":[2,4,6,8,10,12,-1,14,16,-1,18,20,-1,22,-1,24,26,-1,-1,-1,-1,28,-1,30,-1,32,34,-1,-1,-1,-1,-1,-1,-1,-1],"split_conditions":[3.2381832E4,2.1815234E4,4.603949E4,1.5523422E4,8E0,7.73681E3,8.676875E1,8.796E1,1.8216596E4,1.18839355E2,1.81642E4,2.338803E4,3.595232E2,1.6E1,-9.091682E1,1.3E1,4.901E1,1.2244076E1,5.8166798E1,3.3229397E1,1.7054486E2,1.3549327E4,-6.6259056E1,1.3592285E4,-3.047439E1,1E0,3.330592E4,-5.8714355E1,-3.5762493E1,-1.5448119E1,-5.547136E0,2.117246E1,2.4890625E0,-6.3383546E0,8.559701E0],"split_indices":[31,31,17,31,11,26,0,2,31,0,19,17,0,32,0,32,2,0,0,0,0,31,0,29,0,0,20,0,0,0,0,0,0,0,0],"split_type":[0,0,0,0,0,0,0,0,0,0,0,0,0,0,0,0,0,0,0,0,0,0,0,0,0,0,0,0,0,0,0,0,0,0,0],"sum_hessian":[1.3E2,1.14E2,1.6E1,1.02E2,1.2E1,1.3E1,3E0,7.1E1,3.1E1,3E0,9E0,6E0,7E0,6.6E1,5E0,1.9E1,1.2E1,2E0,7E0,1E0,5E0,5.7E1,9E0,1.2E1,7E0,3E0,9E0,1.2E1,4.5E1,1E1,2E0,2E0,1E0,7E0,2E0],"tree_param":{"num_deleted":"0","num_feature":"33","num_nodes":"35","size_leaf_vector":"1"}},{"base_weights":[9.2714554E1,-2.3757706E2,2.3215864E3,-3.5249933E2,6.91236E2,1.7168179E3,3.4296672E3,-4.555521E2,-1.0961499E2,9.762767E2,3.9105103E2,2.135001E2,8.731042E2,3.7896817E2,9.948047E1,-3.9825214E2,-7.0886426E2,-1.9623848E2,3.2083836E1,1.06083984E2,2.7673048E1,3.5959961E0,4.366412E1,1.01716995E2,3.899818E1,-4.3853156E2,-2.5755804E2,-1.5115235E0,-7.705582E2,-1.02374565E2,-2.502832E2,9.1686195E1,-8.161719E1,-4.632327E1,-1.9665186E1,-9.298711E0,-3.0466612E1,-2.0006933E1,-8.0760025E1,-1.2662032E1,-5.765391E0,-2.6737625E1,-3.1129882E0,1.4954102E1,-1.8017578E0,-1.3891927E0,-1.2213672E1],"categories":[],"categories_nodes":[],"categories_segments":[],"categories_sizes":[],"default_left":[0,0,0,0,0,0,0,0,0,1,0,0,0,0,0,1,0,0,0,0,0,0,0,0,0,0,0,0,0,0,0,1,0,0,0,0,0,0,0,0,0,0,0,0,0,0,0],"id":26,"left_children":[1,3,5,7,9,11,13,15,17,19,21,-1,23,-1,-1,25,27,29,31,-1,-1,-1,-1,-1,-1,33,35,-1,37,39,41,43,45,-1,-1,-1,-1,-1,-1,-1,-1,-1,-1,-1,-1,-1,-1],"loss_changes":[9.699083E7,1.2518911E7,5.504136E6,2.528144E6,7.30571E5,2.722668E6,6.12932E5,7.62757E5,3.9907834E5,6.1368E4,1.1380775E5,0E0,2.09305E4,0E0,0E0,2.32744E5,5.019545E5,7.583431E4,9.55822E4,0E0,0E0,0E0,0E0,0E0,0E0,1.83741E5,9.571175E4,0E0,7.08765E4,2.4584062E3,3.6628562E4,5.98164E4,1.202427E4,0E0,0E0,0E0,0E0,0E0,0E0,0E0,0E0,0E0,0E0,0E0,0E0,0E0,0E0],"parents":[2147483647,0,0,1,1,2,2,3,3,4,4,5,5,6,6,7,7,8,8,9,9,10,10,12,12,15,15,16,16,17,17,18,18,25,25,26,26,28,28,29,29,30,30,31,31,32,32],"right_children":[2,4,6,8,10,12,14,16,18,20,22,-1,24,-1,-1,26,28,30,32,-1,-1,-1,-1,-1,-1,34,36,-1,38,40,42,44,46,-1,-1,-1,-1,-1,-1,-1,-1,-1,-1,-1,-1,-1,-1],"split_conditions":[3.2381832E4,2.1815234E4,4.960787E4,1.5523422E4,4.827E1,5.779E1,7.127E1,8.641E1,1.8216596E4,1.954939E4,1.812252E4,2.135001E2,2.1566931E2,3.7896817E2,9.948047E1,1.723515E4,2.633E0,1.1E1,1.5E1,1.06083984E2,2.7673048E1,3.5959961E0,4.366412E1,1.01716995E2,3.899818E1,3.5E1,1E1,-1.5115235E0,1.55364E4,1.626718E4,3.637E0,2.104339E4,3.285E0,-4.632327E1,-1.9665186E1,-9.298711E0,-3.0466612E1,-2.0006933E1,-8.0760025E1,-1.2662032E1,-5.765391E0,-2.6737625E1,-3.1129882E0,1.4954102E1,-1.8017578E0,-1.3891927E0,-1.2213672E1],"split_indices":[31,31,31,31,2,2,2,2,31,19,19,0,9,0,0,21,3,32,32,0,0,0,0,0,0,11,32,0,21,31,3,17,3,0,0,0,0,0,0,0,0,0,0,0,0,0,0],"split_type":[0,0,0,0,0,0,0,0,0,0,0,0,0,0,0,0,0,0,0,0,0,0,0,0,0,0,0,0,0,0,0,0,0,0,0,0,0,0,0,0,0,0,0,0,0,0,0],"sum_hessian":[1.3E2,1.14E2,1.6E1,1.02E2,1.2E1,1.2E1,4E0,7.1E1,3.1E1,5E0,7E0,7E0,5E0,3E0,1E0,6E1,1.1E1,1.9E1,1.2E1,4E0,1E0,1E0,6E0,3E0,2E0,4.5E1,1.5E1,1E0,1E1,8E0,1.1E1,8E0,4E0,4E1,5E0,4E0,1.1E1,1E0,9E0,4E0,4E0,1E1,1E0,5E0,3E0,2E0,2E0],"tree_param":{"num_deleted":"0","num_feature":"33","num_nodes":"47","size_leaf_vector":"1"}},{"base_weights":[8.9221275E1,-2.1447774E2,2.1384075E3,-3.1974188E2,6.360364E2,1.5723829E3,3.18239E3,-4.128858E2,-1.0017609E2,1.01969925E2,4.189676E2,1.9481885E2,8.092451E2,3.505455E2,9.450645E1,-3.7509183E2,-7.6610435E1,-1.7902812E2,2.8840595E1,9.852474E0,4.867627E2,9.408809E1,3.6398243E1,-2.7983328E2,-4.3630737E2,-9.418446E1,-2.2774187E2,1.5300488E2,-2.3709179E1,1.4325976E1,5.1536884E1,-4.25626E1,-1.8069891E1,-5.0223396E1,-2.2283667E1,-1.1649062E1,-5.3041406E0,-2.4306871E1,-2.9573243E0,1.8764128E1,2.454785E0,-5.5856447E0,6.9919925E0],"categories":[],"categories_nodes":[],"categories_segments":[],"categories_sizes":[],"default_left":[0,0,0,0,0,0,0,0,0,0,0,0,0,0,0,0,0,0,0,0,0,0,0,0,0,0,0,0,1,0,0,0,0,0,0,0,0,0,0,0,0,0,0],"id":27,"left_children":[1,3,5,7,9,11,13,15,17,-1,19,-1,21,-1,-1,23,-1,25,27,-1,29,-1,-1,31,33,35,37,39,41,-1,-1,-1,-1,-1,-1,-1,-1,-1,-1,-1,-1,-1,-1],"loss_changes":[8.198464E7,1.0499159E7,5.041696E6,2.065115E6,6.554355E5,2.151726E6,3.01128E5,6.73807E5,3.3070656E5,0E0,1.6928638E5,0E0,9.211E3,0E0,0E0,2.68603E5,0E0,6.1211312E4,8.8450086E4,0E0,4.77875E3,0E0,0E0,3.4222875E5,4.36947E5,2.0808672E3,2.9259312E4,1.3190969E4,3.400467E4,0E0,0E0,0E0,0E0,0E0,0E0,0E0,0E0,0E0,0E0,0E0,0E0,0E0,0E0],"parents":[2147483647,0,0,1,1,2,2,3,3,4,4,5,5,6,6,7,7,8,8,10,10,12,12,15,15,17,17,18,18,20,20,23,23,24,24,25,25,26,26,27,27,28,28],"right_children":[2,4,6,8,10,12,14,16,18,-1,20,-1,22,-1,-1,24,-1,26,28,-1,30,-1,-1,32,34,36,38,40,42,-1,-1,-1,-1,-1,-1,-1,-1,-1,-1,-1,-1,-1,-1],"split_conditions":[3.2381832E4,2.1815234E4,4.960787E4,1.5523422E4,8E0,5.779E1,7.127E1,8.796E1,1.8216596E4,1.01969925E2,1.81642E4,1.9481885E2,2.1566931E2,3.505455E2,9.450645E1,1.3E1,-7.6610435E1,1.1E1,4.901E1,9.852474E0,2.1109636E2,9.408809E1,3.6398243E1,1.3624038E4,9.8E0,1.626718E4,3.637E0,1E0,3.330592E4,1.4325976E1,5.1536884E1,-4.25626E1,-1.8069891E1,-5.0223396E1,-2.2283667E1,-1.1649062E1,-5.3041406E0,-2.4306871E1,-2.9573243E0,1.8764128E1,2.454785E0,-5.5856447E0,6.9919925E0],"split_indices":[31,31,31,31,11,2,2,2,31,0,19,0,9,0,0,32,0,32,2,0,9,0,0,31,6,31,3,0,20,0,0,0,0,0,0,0,0,0,0,0,0,0,0],"split_type":[0,0,0,0,0,0,0,0,0,0,0,0,0,0,0,0,0,0,0,0,0,0,0,0,0,0,0,0,0,0,0,0,0,0,0,0,0,0,0,0,0,0,0],"sum_hessian":[1.3E2,1.14E2,1.6E1,1.02E2,1.2E1,1.2E1,4E0,7.1E1,3.1E1,3E0,9E0,7E0,5E0,3E0,1E0,6.6E1,5E0,1.9E1,1.2E1,2E0,7E0,3E0,2E0,2.8E1,3.8E1,8E0,1.1E1,3E0,9E0,1E0,6E0,1E1,1.8E1,2.8E1,1E1,4E0,4E0,1E1,1E0,2E0,1E0,7E0,2E0],"tree_param":{"num_deleted":"0","num_feature":"33","num_nodes":"43","size_leaf_vector":"1"}},{"base_weights":[8.577001E1,-2.3013068E2,1.7514465E3,-3.2066757E2,2.893479E2,1.2949751E3,2.9531602E3,-4.6644562E2,-2.317676E2,7.985442E1,1.6821875E2,1.8819109E2,9.6961707E2,3.242545E2,8.978106E1,-3.360172E2,-6.1794904E2,-3.283046E2,-1.2775422E2,6.577821E1,2.7589676E2,5.717129E1,1.2290045E2,-4.600276E2,-2.4115291E2,-6.743753E2,-1.6745214E1,-6.532471E1,-3.5414798E2,-9.8128006E1,-2.3484212E2,1.24552734E2,-3.8828125E1,2.9236329E0,3.1213413E1,-5.017924E1,-8.383692E0,-5.1359863E0,-2.8824558E1,-2.8356153E1,-7.196541E1,-8.355014E0,-5.324219E-1,-3.6634987E1,-1.2348633E0,1.6003907E0,-1.1371059E1,-2.6032774E1,-5.370703E0,5.547998E0,1.7513216E1,-9.242188E-1,-6.379297E0],"categories":[],"categories_nodes":[],"categories_segments":[],"categories_sizes":[],"default_left":[0,0,0,0,0,0,0,0,0,0,0,0,0,0,0,0,0,0,0,0,0,0,0,0,0,0,0,0,0,0,0,0,0,0,0,0,0,0,0,0,0,0,0,0,0,0,0,0,0,0,0,0,0],"id":28,"left_children":[1,3,5,7,9,11,13,15,17,-1,19,-1,21,-1,-1,23,25,27,29,31,33,-1,-1,35,37,39,-1,41,43,45,47,49,51,-1,-1,-1,-1,-1,-1,-1,-1,-1,-1,-1,-1,-1,-1,-1,-1,-1,-1,-1,-1],"loss_changes":[6.9333736E7,5.3133335E6,7.69524E6,1.123061E6,9.142046E5,1.42166E6,6.2744E4,4.83971E5,5.7056725E5,0E0,1.473109E5,0E0,6.39109E5,0E0,0E0,1.3611025E5,2.683725E5,1.8755025E5,7.530631E4,6.016984E4,5.3442562E4,0E0,0E0,8.3623625E4,1.1032575E5,2.59755E4,0E0,3.9292988E3,1.1225275E5,4.806008E4,1.3716625E4,1.1245633E4,2.3648467E3,0E0,0E0,0E0,0E0,0E0,0E0,0E0,0E0,0E0,0E0,0E0,0E0,0E0,0E0,0E0,0E0,0E0,0E0,0E0,0E0],"parents":[2147483647,0,0,1,1,2,2,3,3,4,4,5,5,6,6,7,7,8,8,10,10,12,12,15,15,16,16,17,17,18,18,19,19,20,20,23,23,24,24,25,25,27,27,28,28,29,29,30,30,31,31,32,32],"right_children":[2,4,6,8,10,12,14,16,18,-1,20,-1,22,-1,-1,24,26,28,30,32,34,-1,-1,36,38,40,-1,42,44,46,48,50,52,-1,-1,-1,-1,-1,-1,-1,-1,-1,-1,-1,-1,-1,-1,-1,-1,-1,-1,-1,-1],"split_conditions":[2.6941715E4,1.9596299E4,4.960787E4,1.4125474E4,1E1,8E0,7.127E1,1.4E1,2.4197426E4,7.985442E1,2.1815234E4,1.8819109E2,3.3754375E4,3.242545E2,8.978106E1,2.983E0,4.1031E2,1.427195E4,1.4E1,1.5E1,1.812252E4,5.717129E1,1.2290045E2,5.725843E4,9E0,2.642E0,-1.6745214E1,8.641E1,7.16191E3,1.714744E4,3.575E0,2.554304E4,3.285E0,2.9236329E0,3.1213413E1,-5.017924E1,-8.383692E0,-5.1359863E0,-2.8824558E1,-2.8356153E1,-7.196541E1,-8.355014E0,-5.324219E-1,-3.6634987E1,-1.2348633E0,1.6003907E0,-1.1371059E1,-2.6032774E1,-5.370703E0,5.547998E0,1.7513216E1,-9.242188E-1,-6.379297E0],"split_indices":[31,31,31,31,32,11,2,32,25,0,31,0,31,0,0,3,4,31,32,32,19,0,0,18,32,3,0,2,8,19,3,19,3,0,0,0,0,0,0,0,0,0,0,0,0,0,0,0,0,0,0,0,0],"split_type":[0,0,0,0,0,0,0,0,0,0,0,0,0,0,0,0,0,0,0,0,0,0,0,0,0,0,0,0,0,0,0,0,0,0,0,0,0,0,0,0,0,0,0,0,0,0,0,0,0,0,0,0,0],"sum_hessian":[1.3E2,1.1E2,2E1,9.4E1,1.6E1,1.6E1,4E0,3.4E1,6E1,2E0,1.4E1,4E0,1.2E1,3E0,1E0,2E1,1.4E1,3E1,3E1,8E0,6E0,6E0,6E0,7E0,1.3E1,1.2E1,2E0,3E0,2.7E1,2.5E1,5E0,5E0,3E0,1E0,5E0,6E0,1E0,3E0,1E1,2E0,1E1,2E0,1E0,2.6E1,1E0,3E0,2.2E1,4E0,1E0,3E0,2E0,2E0,1E0],"tree_param":{"num_deleted":"0","num_feature":"33","num_nodes":"53","size_leaf_vector":"1"}},{"base_weights":[8.188395E1,-1.7587067E2,1.8207014E3,-2.750773E2,4.5516272E2,2.919955E2,1.3765789E3,-4.257892E2,-1.909865E2,7.557363E2,2.4983505E2,1.6853975E3,8.2698914E2,-3.0682135E2,-5.6395825E2,-3.0875546E2,-1.0671777E2,8.2346794E1,2.0853907E1,3.0239865E2,8.865886E0,4.436465E1,1.7994124E2,9.768234E1,3.0160221E1,-4.2134497E2,-2.1946346E2,-6.339681E2,-2.129392E1,-1.1423409E2,-3.5889328E2,-1.3875517E2,3.2699218E0,5.7176757E0,3.259043E2,-1.4475586E0,2.7774415E0,-5.1899868E1,-1.9394165E1,-4.7507324E0,-2.6204172E1,-2.6465723E1,-6.813646E1,-1.4739181E1,-2.0893228E0,-3.9717022E1,-1.5697306E1,-4.8908763E0,-1.5836196E1,1.0278385E1,-3.4456544E0,9.309278E0,3.458641E1],"categories":[],"categories_nodes":[],"categories_segments":[],"categories_sizes":[],"default_left":[0,0,0,0,0,0,0,0,0,1,0,0,0,0,0,0,0,0,0,0,0,0,0,0,0,0,0,0,0,0,0,0,0,0,0,0,0,0,0,0,0,0,0,0,0,0,0,0,0,0,0,0,0],"id":29,"left_children":[1,3,5,7,9,-1,11,13,15,17,19,21,23,25,27,29,31,-1,-1,33,35,-1,-1,-1,-1,37,39,41,-1,43,45,47,49,-1,51,-1,-1,-1,-1,-1,-1,-1,-1,-1,-1,-1,-1,-1,-1,-1,-1,-1,-1],"loss_changes":[5.9032864E7,7.324515E6,4.279912E6,1.1860285E6,7.9864775E5,0E0,9.82322E5,4.022845E5,6.2205025E5,5.065025E4,1.3664725E5,3.34324E5,2.564345E5,1.17625625E5,2.33625E5,2.2232975E5,1.4140247E5,0E0,0E0,3.324275E4,1.7261096E3,0E0,0E0,0E0,0E0,7.699875E4,9.00535E4,2.97205E4,0E0,1.858529E4,9.996175E4,4.6864375E4,4.1084664E4,0E0,4.9775625E3,0E0,0E0,0E0,0E0,0E0,0E0,0E0,0E0,0E0,0E0,0E0,0E0,0E0,0E0,0E0,0E0,0E0,0E0],"parents":[2147483647,0,0,1,1,2,2,3,3,4,4,6,6,7,7,8,8,9,9,10,10,11,11,12,12,13,13,14,14,15,15,16,16,19,19,20,20,25,25,26,26,27,27,29,29,30,30,31,31,32,32,34,34],"right_children":[2,4,6,8,10,-1,12,14,16,18,20,22,24,26,28,30,32,-1,-1,34,36,-1,-1,-1,-1,38,40,42,-1,44,46,48,50,-1,52,-1,-1,-1,-1,-1,-1,-1,-1,-1,-1,-1,-1,-1,-1,-1,-1,-1,-1],"split_conditions":[3.2381832E4,2.0609277E4,2.236688E4,1.4125474E4,4.827E1,2.919955E2,5.655E1,1.4E1,1.788006E3,1.954939E4,2E1,2.307755E4,2.1566931E2,2.983E0,2.15796E2,1.3E1,1.8216596E4,8.2346794E1,2.0853907E1,2.079758E4,4.984E1,4.436465E1,1.7994124E2,9.768234E1,3.0160221E1,1.3544314E4,9E0,2.642E0,-2.129392E1,1.624178E4,1.7158857E4,1.750841E4,6E0,5.7176757E0,1.81642E4,-1.4475586E0,2.7774415E0,-5.1899868E1,-1.9394165E1,-4.7507324E0,-2.6204172E1,-2.6465723E1,-6.813646E1,-1.4739181E1,-2.0893228E0,-3.9717022E1,-1.5697306E1,-4.8908763E0,-1.5836196E1,1.0278385E1,-3.4456544E0,9.309278E0,3.458641E1],"split_indices":[31,31,18,31,2,0,2,32,26,19,32,18,9,3,9,32,31,0,0,17,2,0,0,0,0,31,32,3,0,19,22,21,11,0,19,0,0,0,0,0,0,0,0,0,0,0,0,0,0,0,0,0,0],"split_type":[0,0,0,0,0,0,0,0,0,0,0,0,0,0,0,0,0,0,0,0,0,0,0,0,0,0,0,0,0,0,0,0,0,0,0,0,0,0,0,0,0,0,0,0,0,0,0,0,0,0,0,0,0],"sum_hessian":[1.3E2,1.14E2,1.6E1,9.9E1,1.5E1,3E0,1.3E1,3.4E1,6.5E1,5E0,1E1,7E0,6E0,2E1,1.4E1,2.6E1,3.9E1,4E0,1E0,8E0,2E0,1E0,6E0,4E0,2E0,7E0,1.3E1,1.1E1,3E0,6E0,2E1,3E1,9E0,1E0,7E0,1E0,1E0,4E0,3E0,3E0,1E1,2E0,9E0,4E0,2E0,1.6E1,4E0,6E0,2.4E1,2E0,7E0,1E0,6E0],"tree_param":{"num_deleted":"0","num_feature":"33","num_nodes":"53","size_leaf_vector":"1"}},{"base_weights":[7.746648E1,-1.5958922E2,1.6765217E3,-2.4037292E2,4.9274234E2,1.204556E3,2.5683282E2,-3.1623663E2,-7.711317E1,7.944863E1,3.227705E2,1.4911895E3,6.2161884E2,-4.8723297E2,-2.6074246E2,-1.3458833E2,2.6084286E1,7.6549478E0,3.7475708E2,4.2146484E1,1.583798E2,6.707715E1,1.8792774E1,-5.414608E2,-1.8918432E1,-1.9837743E2,-3.3888614E2,-7.9107285E1,-2.0593793E2,6.475078E1,-7.710303E1,4.245033E1,1.5034571E1,-1.5560694E1,-5.60648E1,-1.41614065E1,-3.340115E1,-3.743487E1,-7.6851563E0,-6.955078E-1,-8.412245E0,-5.631055E0,-2.1760254E1,9.0307865E0,-2.4985025E0,-1.3751954E0,-9.363607E0],"categories":[],"categories_nodes":[],"categories_segments":[],"categories_sizes":[],"default_left":[0,0,0,0,0,0,0,0,0,0,0,0,0,0,0,0,0,0,0,0,0,0,0,0,0,0,0,0,0,1,0,0,0,0,0,0,0,0,0,0,0,0,0,0,0,0,0],"id":30,"left_children":[1,3,5,7,9,11,-1,13,15,-1,17,19,21,23,25,27,29,-1,31,-1,-1,-1,-1,33,-1,35,37,39,41,43,45,-1,-1,-1,-1,-1,-1,-1,-1,-1,-1,-1,-1,-1,-1,-1,-1],"loss_changes":[4.992509E7,6.178684E6,4.06164E6,1.251319E6,4.10307E5,1.24521E6,0E0,5.37208E5,2.0517456E5,0E0,9.93145E4,1.2501E5,1.846E3,1.561645E5,2.0081175E5,7.0796875E4,5.686107E4,0E0,2.5486625E4,0E0,0E0,0E0,0E0,9.0045E3,0E0,2.0676775E5,1.8495675E5,4.4808906E3,3.4547812E3,2.51902E4,2.9018652E3,0E0,0E0,0E0,0E0,0E0,0E0,0E0,0E0,0E0,0E0,0E0,0E0,0E0,0E0,0E0,0E0],"parents":[2147483647,0,0,1,1,2,2,3,3,4,4,5,5,7,7,8,8,10,10,11,11,12,12,13,13,14,14,15,15,16,16,18,18,23,23,25,25,26,26,27,27,28,28,29,29,30,30],"right_children":[2,4,6,8,10,12,-1,14,16,-1,18,20,22,24,26,28,30,-1,32,-1,-1,-1,-1,34,-1,36,38,40,42,44,46,-1,-1,-1,-1,-1,-1,-1,-1,-1,-1,-1,-1,-1,-1,-1,-1],"split_conditions":[3.2381832E4,2.1815234E4,4.960787E4,1.5201214E4,8E0,5.779E1,2.5683282E2,1.643415E4,1.8216596E4,7.944863E1,1.81642E4,2.3314582E4,3.814E0,1.768876E4,1.4E1,1.3E1,1.6E1,7.6549478E0,2.876237E4,4.2146484E1,1.583798E2,6.707715E1,1.8792774E1,2.623E0,-1.8918432E1,2.9508936E4,8.3514E3,2.113699E2,5.958E1,4.159555E4,4.984E1,4.245033E1,1.5034571E1,-1.5560694E1,-5.60648E1,-1.41614065E1,-3.340115E1,-3.743487E1,-7.6851563E0,-6.955078E-1,-8.412245E0,-5.631055E0,-2.1760254E1,9.0307865E0,-2.4985025E0,-1.3751954E0,-9.363607E0],"split_indices":[31,31,31,31,11,2,0,20,31,0,19,22,3,24,32,32,32,0,20,0,0,0,0,3,0,28,4,9,2,19,2,0,0,0,0,0,0,0,0,0,0,0,0,0,0,0,0],"split_type":[0,0,0,0,0,0,0,0,0,0,0,0,0,0,0,0,0,0,0,0,0,0,0,0,0,0,0,0,0,0,0,0,0,0,0,0,0,0,0,0,0,0,0,0,0,0,0],"sum_hessian":[1.3E2,1.14E2,1.6E1,1.02E2,1.2E1,1.2E1,4E0,6.9E1,3.3E1,3E0,9E0,7E0,5E0,1.5E1,5.4E1,2.1E1,1.2E1,2E0,7E0,1E0,6E0,4E0,1E0,1.2E1,3E0,3.2E1,2.2E1,1.3E1,8E0,9E0,3E0,5E0,2E0,1E0,1.1E1,2.4E1,8E0,1.9E1,3E0,1E0,1.2E1,1E0,7E0,7E0,2E0,1E0,2E0],"tree_param":{"num_deleted":"0","num_feature":"33","num_nodes":"47","size_leaf_vector":"1"}},{"base_weights":[7.326089E1,-1.4432033E2,1.5408243E3,-2.1850978E2,4.5459E2,2.5329472E2,1.1473018E3,-2.872304E2,-7.059938E1,7.3489944E1,2.9700723E2,1.4085366E3,6.8484735E2,-4.44169E2,-2.3635318E2,-1.10389725E2,5.2194878E1,7.144662E1,3.4446655E2,4.0039062E1,1.4953587E2,8.070633E1,2.5287176E1,-4.9282467E1,-1.7499586E1,-4.4709238E2,-2.1105809E2,-6.233484E1,-1.702523E2,1.01132484E2,-3.4260254E1,2.2558594E0,8.461133E0,3.891276E1,1.4032227E1,1.4179688E0,-5.659553E1,-1.764757E1,-4.032224E1,-7.3696427E0,1.1464193E0,-1.9358725E1,-4.3496747E0,4.483838E0,1.4248047E1,-9.547526E-1,-5.419922E0],"categories":[],"categories_nodes":[],"categories_segments":[],"categories_sizes":[],"default_left":[0,0,0,0,0,0,0,0,0,0,0,0,0,0,0,0,0,0,0,0,0,0,0,0,0,0,0,0,0,0,0,0,0,0,0,0,0,0,0,0,0,0,0,0,0,0,0],"id":31,"left_children":[1,3,5,7,9,-1,11,13,15,-1,17,19,21,23,25,27,29,31,33,-1,-1,-1,-1,-1,-1,35,37,39,41,43,45,-1,-1,-1,-1,-1,-1,-1,-1,-1,-1,-1,-1,-1,-1,-1,-1],"loss_changes":[4.2052536E7,5.209108E6,3.731132E6,1.026665E6,3.559645E5,0E0,7.26696E5,4.539415E5,1.7188667E5,0E0,8.2438625E4,1.01508E5,1.6547625E5,1.2330675E5,1.9882425E5,6.418128E4,4.1542984E4,2.2077148E1,1.8335125E4,0E0,0E0,0E0,0E0,0E0,0E0,2.8216588E5,2.677615E5,1.4260457E4,2.4115719E4,7.577293E3,1.4535166E3,0E0,0E0,0E0,0E0,0E0,0E0,0E0,0E0,0E0,0E0,0E0,0E0,0E0,0E0,0E0,0E0],"parents":[2147483647,0,0,1,1,2,2,3,3,4,4,6,6,7,7,8,8,10,10,11,11,12,12,13,13,14,14,15,15,16,16,17,17,18,18,25,25,26,26,27,27,28,28,29,29,30,30],"right_children":[2,4,6,8,10,-1,12,14,16,-1,18,20,22,24,26,28,30,32,34,-1,-1,-1,-1,-1,-1,36,38,40,42,44,46,-1,-1,-1,-1,-1,-1,-1,-1,-1,-1,-1,-1,-1,-1,-1,-1],"split_conditions":[3.2381832E4,2.1815234E4,2.236688E4,1.5201214E4,8E0,2.5329472E2,5.655E1,1.643415E4,1.9596299E4,7.3489944E1,1.81642E4,2.307755E4,2.1566931E2,1.768876E4,1.3180087E4,1.3E1,1.5E1,6.393E1,2.876237E4,4.0039062E1,1.4953587E2,8.070633E1,2.5287176E1,-4.9282467E1,-1.7499586E1,3.639E1,1.6E1,9.87333E3,2.013819E4,2.554304E4,3.285E0,2.2558594E0,8.461133E0,3.891276E1,1.4032227E1,1.4179688E0,-5.659553E1,-1.764757E1,-4.032224E1,-7.3696427E0,1.1464193E0,-1.9358725E1,-4.3496747E0,4.483838E0,1.4248047E1,-9.547526E-1,-5.419922E0],"split_indices":[31,31,18,31,11,0,2,20,31,0,19,18,9,24,31,32,32,2,20,0,0,0,0,0,0,2,32,4,17,19,3,0,0,0,0,0,0,0,0,0,0,0,0,0,0,0,0],"split_type":[0,0,0,0,0,0,0,0,0,0,0,0,0,0,0,0,0,0,0,0,0,0,0,0,0,0,0,0,0,0,0,0,0,0,0,0,0,0,0,0,0,0,0,0,0,0,0],"sum_hessian":[1.3E2,1.14E2,1.6E1,1.02E2,1.2E1,3E0,1.3E1,6.9E1,3.3E1,3E0,9E0,7E0,6E0,1.5E1,5.4E1,2.5E1,8E0,2E0,7E0,1E0,6E0,4E0,2E0,1.2E1,3E0,4E0,5E1,1.5E1,1E1,5E0,3E0,1E0,1E0,5E0,2E0,1E0,3E0,4.4E1,6E0,1.3E1,2E0,8E0,2E0,3E0,2E0,2E0,1E0],"tree_param":{"num_deleted":"0","num_feature":"33","num_nodes":"47","size_leaf_vector":"1"}},{"base_weights":[6.966421E1,-1.3041278E2,1.4190283E3,-1.9857605E2,4.196818E2,1.00353815E3,2.2154968E3,-3.293878E2,-1.2934436E2,6.7978325E1,2.7367303E2,1.2370107E3,5.2498505E2,2.4517168E2,6.353086E1,-2.8354077E2,-6.138169E1,-2.2998683E2,-6.314224E1,6.787435E1,3.1663843E2,1.4822438E2,6.212168E1,6.104678E1,2.3601301E1,-3.0859473E2,-8.653047E1,-2.036377E1,-2.5534123E2,-9.000717E1,4.834831E1,2.1430664E0,8.038086E0,3.5670055E1,1.3096809E1,-4.157467E1,-2.1480543E1,1.3470703E0,-1.1489844E1,-3.5080078E0,1.1892579E0,-1.6471346E1,-3.1935598E1,2.4732912E0,-1.0153696E1,9.414096E0,-3.2427735E0],"categories":[],"categories_nodes":[],"categories_segments":[],"categories_sizes":[],"default_left":[0,0,0,0,0,0,0,0,0,0,0,0,0,0,0,0,0,0,0,0,0,0,0,0,0,1,0,0,0,0,0,0,0,0,0,0,0,0,0,0,0,0,0,0,0,0,0],"id":32,"left_children":[1,3,5,7,9,11,13,15,17,-1,19,21,23,-1,-1,25,-1,27,29,31,33,-1,-1,-1,-1,35,37,39,41,43,45,-1,-1,-1,-1,-1,-1,-1,-1,-1,-1,-1,-1,-1,-1,-1,-1],"loss_changes":[3.555201E7,4.395407E6,3.402384E6,8.90196E5,3.0766375E5,8.03066E5,3.08764E5,2.8236575E5,4.4520762E5,0E0,6.69305E4,2.87309E5,4.134375E3,0E0,0E0,1.312455E5,0E0,1.3830162E5,1.3314467E5,1.9930664E1,1.2790375E4,0E0,0E0,0E0,0E0,1.9208725E5,1.5731914E4,2.3159702E3,8.6634125E4,4.8813844E4,3.6343312E4,0E0,0E0,0E0,0E0,0E0,0E0,0E0,0E0,0E0,0E0,0E0,0E0,0E0,0E0,0E0,0E0],"parents":[2147483647,0,0,1,1,2,2,3,3,4,4,5,5,6,6,7,7,8,8,10,10,11,11,12,12,15,15,17,17,18,18,19,19,20,20,25,25,26,26,27,27,28,28,29,29,30,30],"right_children":[2,4,6,8,10,12,14,16,18,-1,20,22,24,-1,-1,26,-1,28,30,32,34,-1,-1,-1,-1,36,38,40,42,44,46,-1,-1,-1,-1,-1,-1,-1,-1,-1,-1,-1,-1,-1,-1,-1,-1],"split_conditions":[3.2381832E4,2.1815234E4,4.960787E4,1.4125474E4,8E0,5.779E1,7.127E1,8.796E1,1.788006E3,6.7978325E1,1.81642E4,4.5E1,2.1566931E2,2.4517168E2,6.353086E1,1.926379E4,-6.138169E1,1.427195E4,1.9596299E4,6.393E1,2.876237E4,1.4822438E2,6.212168E1,6.104678E1,2.3601301E1,1.536045E4,3.639E1,8.641E1,1.703995E4,1.846118E4,1.5E1,2.1430664E0,8.038086E0,3.5670055E1,1.3096809E1,-4.157467E1,-2.1480543E1,1.3470703E0,-1.1489844E1,-3.5080078E0,1.1892579E0,-1.6471346E1,-3.1935598E1,2.4732912E0,-1.0153696E1,9.414096E0,-3.2427735E0],"split_indices":[31,31,31,31,11,2,2,2,26,0,19,11,9,0,0,23,0,31,31,2,20,0,0,0,0,21,2,2,28,24,32,0,0,0,0,0,0,0,0,0,0,0,0,0,0,0,0],"split_type":[0,0,0,0,0,0,0,0,0,0,0,0,0,0,0,0,0,0,0,0,0,0,0,0,0,0,0,0,0,0,0,0,0,0,0,0,0,0,0,0,0,0,0,0,0,0,0],"sum_hessian":[1.3E2,1.14E2,1.6E1,1.02E2,1.2E1,1.2E1,4E0,3.4E1,6.8E1,3E0,9E0,7E0,5E0,3E0,1E0,3.1E1,3E0,2.6E1,4.2E1,2E0,7E0,4E0,3E0,3E0,2E0,2.7E1,4E0,3E0,2.3E1,3.4E1,8E0,1E0,1E0,5E0,2E0,1.1E1,1.6E1,1E0,3E0,2E0,1E0,1.1E1,1.2E1,3E0,3.1E1,5E0,3E0],"tree_param":{"num_deleted":"0","num_feature":"33","num_nodes":"47","size_leaf_vector":"1"}},{"base_weights":[6.68491E1,-1.1789221E2,1.3126375E3,-1.8053212E2,3.8747717E2,9.2587683E2,2.0556875E3,-3.0029428E2,-1.1716678E2,6.2880077E1,2.522E2,1.139604E3,4.865944E2,2.267838E2,6.0354298E1,-2.092374E2,-4.077543E2,-4.482765E1,-1.9472379E2,6.448047E1,2.9106982E2,1.3636656E2,5.7462597E1,5.646826E1,2.2027864E1,-2.450777E2,-7.879037E1,-4.6581064E2,-1.3164673E1,-7.091083E1,4.4199E1,-7.738607E1,-2.291764E2,2.0359375E0,7.6361327E0,3.2697495E1,1.2223633E1,-2.7987299E1,-7.0723634E0,1.2796875E0,-9.96672E0,-3.173451E1,-6.1019337E1,-4.7610703E0,-1.732293E1,8.62959E0,-2.9996095E0,2.4798177E-1,-1.0055915E1,-2.5641285E1,-6.8948045E0],"categories":[],"categories_nodes":[],"categories_segments":[],"categories_sizes":[],"default_left":[0,0,0,0,0,0,0,0,0,0,0,0,0,0,0,0,0,0,0,0,0,0,0,0,0,0,0,0,0,0,0,0,0,0,0,0,0,0,0,0,0,0,0,0,0,0,0,0,0,0,0],"id":33,"left_children":[1,3,5,7,9,11,13,15,17,-1,19,21,23,-1,-1,25,27,29,31,33,35,-1,-1,-1,-1,37,39,41,-1,43,45,47,49,-1,-1,-1,-1,-1,-1,-1,-1,-1,-1,-1,-1,-1,-1,-1,-1,-1,-1],"loss_changes":[3.0304212E7,3.710425E6,2.98219E6,7.464585E5,2.6580875E5,6.66001E5,1.71626E5,2.5715675E5,3.78389E5,0E0,5.4197938E4,2.29122E5,3.8925E2,0E0,0E0,7.8870625E4,1.791245E5,8.905183E4,1.15670375E5,1.7920898E1,8.52775E3,0E0,0E0,0E0,0E0,7.72735E4,1.2747734E4,6.35885E4,0E0,6.0889406E4,3.0698988E4,1.6906016E4,9.1422125E4,0E0,0E0,0E0,0E0,0E0,0E0,0E0,0E0,0E0,0E0,0E0,0E0,0E0,0E0,0E0,0E0,0E0,0E0],"parents":[2147483647,0,0,1,1,2,2,3,3,4,4,5,5,6,6,7,7,8,8,10,10,11,11,12,12,15,15,16,16,17,17,18,18,19,19,20,20,25,25,26,26,27,27,29,29,30,30,31,31,32,32],"right_children":[2,4,6,8,10,12,14,16,18,-1,20,22,24,-1,-1,26,28,30,32,34,36,-1,-1,-1,-1,38,40,42,-1,44,46,48,50,-1,-1,-1,-1,-1,-1,-1,-1,-1,-1,-1,-1,-1,-1,-1,-1,-1,-1],"split_conditions":[3.2381832E4,2.1815234E4,4.960787E4,1.4125474E4,8E0,5.779E1,7.127E1,1.4E1,7.203E1,6.2880077E1,1.81642E4,4.5E1,2.1566931E2,2.267838E2,6.0354298E1,3.423888E4,2.15796E2,1.9596299E4,1.3E1,6.393E1,2.876237E4,1.3636656E2,5.7462597E1,5.646826E1,2.2027864E1,3.698849E4,3.639E1,2.1554462E2,-1.3164673E1,5.7471E3,1.5E1,1.427195E4,2.114007E4,2.0359375E0,7.6361327E0,3.2697495E1,1.2223633E1,-2.7987299E1,-7.0723634E0,1.2796875E0,-9.96672E0,-3.173451E1,-6.1019337E1,-4.7610703E0,-1.732293E1,8.62959E0,-2.9996095E0,2.4798177E-1,-1.0055915E1,-2.5641285E1,-6.8948045E0],"split_indices":[31,31,31,31,11,2,2,32,2,0,19,11,9,0,0,19,9,31,32,2,20,0,0,0,0,17,2,9,0,8,32,31,20,0,0,0,0,0,0,0,0,0,0,0,0,0,0,0,0,0,0],"split_type":[0,0,0,0,0,0,0,0,0,0,0,0,0,0,0,0,0,0,0,0,0,0,0,0,0,0,0,0,0,0,0,0,0,0,0,0,0,0,0,0,0,0,0,0,0,0,0,0,0,0,0],"sum_hessian":[1.3E2,1.14E2,1.6E1,1.02E2,1.2E1,1.2E1,4E0,3.4E1,6.8E1,3E0,9E0,7E0,5E0,3E0,1E0,2E1,1.4E1,3.6E1,3.2E1,2E0,7E0,4E0,3E0,3E0,2E0,1.5E1,5E0,1.1E1,3E0,2.8E1,8E0,8E0,2.4E1,1E0,1E0,5E0,2E0,1.2E1,3E0,1E0,4E0,7E0,4E0,2.4E1,4E0,5E0,3E0,2E0,6E0,2E1,4E0],"tree_param":{"num_deleted":"0","num_feature":"33","num_nodes":"51","size_leaf_vector":"1"}},{"base_weights":[6.3740383E1,-1.06894104E2,1.2142831E3,-1.6450273E2,3.5776608E2,2.0358516E2,8.9281476E2,-2.7454117E2,-1.0630204E2,5.816416E1,2.3243925E2,9.394817E2,1.4307227E1,-3.3234793E2,-1.3604915E2,-4.0789116E1,-1.7653465E2,6.125651E1,2.6757788E2,1.6531836E1,9.9021875E2,-2.3835287E1,-3.5931113E2,-1.8073462E2,-3.734258E1,-6.458082E1,4.0405167E1,-7.073676E1,-2.075605E2,1.9341797E0,7.254297E0,2.9972656E1,1.140879E1,1.0908759E3,5.1618557E1,1.2157227E0,-4.7910156E0,-3.9313667E1,-1.0881202E1,-2.734961E0,-1.9873968E1,-4.8269043E0,3.1816408E-1,5.248389E0,-8.01069E0,1.124442E-2,1.2095313E1,2.3144531E-1,-9.193917E0,-1.1835521E1,-2.5914036E1,3.205801E1,1.1470904E2],"categories":[],"categories_nodes":[],"categories_segments":[],"categories_sizes":[],"default_left":[0,0,0,0,0,0,0,1,0,0,0,0,0,0,0,0,0,0,0,0,0,0,0,0,0,0,0,0,0,0,0,0,0,0,0,0,0,0,0,0,0,0,0,0,0,0,0,0,0,0,0,0,0],"id":34,"left_children":[1,3,5,7,9,-1,11,13,15,-1,17,19,-1,21,23,25,27,29,31,-1,33,35,37,39,41,43,45,47,49,-1,-1,-1,-1,51,-1,-1,-1,-1,-1,-1,-1,-1,-1,-1,-1,-1,-1,-1,-1,-1,-1,-1,-1],"loss_changes":[2.5848016E7,3.1372232E6,2.672202E6,6.3045975E5,2.295525E5,0E0,3.5542E5,2.3498675E5,3.1027838E5,0E0,4.3760312E4,3.46924E5,0E0,1.9107925E5,4.617989E4,7.408416E4,9.3639375E4,1.609375E1,5.2808125E3,0E0,9.483E3,3.1819995E3,1.43634E5,1.6658203E4,2.3675068E3,5.6913438E4,2.9195867E4,1.4152551E4,8.435925E4,0E0,0E0,0E0,0E0,2.1981E4,0E0,0E0,0E0,0E0,0E0,0E0,0E0,0E0,0E0,0E0,0E0,0E0,0E0,0E0,0E0,0E0,0E0,0E0,0E0],"parents":[2147483647,0,0,1,1,2,2,3,3,4,4,6,6,7,7,8,8,10,10,11,11,13,13,14,14,15,15,16,16,17,17,18,18,20,20,21,21,22,22,23,23,24,24,25,25,26,26,27,27,28,28,33,33],"right_children":[2,4,6,8,10,-1,12,14,16,-1,18,20,-1,22,24,26,28,30,32,-1,34,36,38,40,42,44,46,48,50,-1,-1,-1,-1,52,-1,-1,-1,-1,-1,-1,-1,-1,-1,-1,-1,-1,-1,-1,-1,-1,-1,-1,-1],"split_conditions":[3.2381832E4,2.1815234E4,2.236688E4,1.4125474E4,8E0,2.0358516E2,3.814E0,1.624178E4,7.203E1,5.816416E1,1.81642E4,2.338803E4,1.4307227E1,4.455E1,2.213664E4,1.9596299E4,1.3E1,6.393E1,2.876237E4,1.6531836E1,4.577303E4,3.639E1,1.935423E4,6.371E1,7.564E1,1.4455138E4,3.468421E4,1.427195E4,1.624178E4,1.9341797E0,7.254297E0,2.9972656E1,1.140879E1,2.307755E4,5.1618557E1,1.2157227E0,-4.7910156E0,-3.9313667E1,-1.0881202E1,-2.734961E0,-1.9873968E1,-4.8269043E0,3.1816408E-1,5.248389E0,-8.01069E0,1.124442E-2,1.2095313E1,2.3144531E-1,-9.193917E0,-1.1835521E1,-2.5914036E1,3.205801E1,1.1470904E2],"split_indices":[31,31,18,31,11,0,3,21,2,0,19,17,0,2,19,31,32,2,20,0,17,2,17,2,2,31,19,31,17,0,0,0,0,18,0,0,0,0,0,0,0,0,0,0,0,0,0,0,0,0,0,0,0],"split_type":[0,0,0,0,0,0,0,0,0,0,0,0,0,0,0,0,0,0,0,0,0,0,0,0,0,0,0,0,0,0,0,0,0,0,0,0,0,0,0,0,0,0,0,0,0,0,0,0,0,0,0,0,0],"sum_hessian":[1.3E2,1.14E2,1.6E1,1.02E2,1.2E1,3E0,1.3E1,3.4E1,6.8E1,3E0,9E0,1.2E1,1E0,2.3E1,1.1E1,3.6E1,3.2E1,2E0,7E0,1E0,1.1E1,2E0,2.1E1,7E0,4E0,2.8E1,8E0,8E0,2.4E1,1E0,1E0,5E0,2E0,8E0,3E0,1E0,1E0,1.8E1,3E0,1E0,6E0,3E0,1E0,3E0,2.5E1,6E0,2E0,2E0,6E0,1E1,1.4E1,1E0,7E0],"tree_param":{"num_deleted":"0","num_feature":"33","num_nodes":"53","size_leaf_vector":"1"}},{"base_weights":[6.059726E1,-9.628771E1,1.1183135E3,-1.4920084E2,3.3035382E2,7.7770734E2,1.7802266E3,-1.9843492E2,-4.34483E1,5.3801857E1,2.1425253E2,9.253242E2,3.564555E1,1.9672783E2,5.160098E1,-1.7515572E2,-4.1755386E2,3.6432617E1,-7.3662735E1,5.819401E1,2.4599292E2,1.1450281E2,5.205555E1,-3.4225546E2,-1.585876E2,-4.6020687E1,-1.0214454E1,7.4444534E1,-1.3160807E0,-1.1744902E2,-4.1692383E1,1.8375E0,6.8916016E0,2.7474936E1,1.0648242E1,1.1549805E0,-4.3359425E1,-1.3076815E1,-2.8739004E1,-1.5280274E0,1.006958E1,1.0015625E0,-9.48584E-1,-1.2385917E1,-2.9878907E0,-5.8259916E0,2.2575195E0],"categories":[],"categories_nodes":[],"categories_segments":[],"categories_sizes":[],"default_left":[0,0,0,0,0,0,0,0,0,0,0,1,0,0,0,0,0,1,1,0,0,0,0,0,0,0,0,0,0,0,0,0,0,0,0,0,0,0,0,0,0,0,0,0,0,0,0],"id":35,"left_children":[1,3,5,7,9,11,13,15,17,-1,19,21,-1,-1,-1,23,25,27,29,31,33,-1,-1,35,37,-1,-1,39,41,43,45,-1,-1,-1,-1,-1,-1,-1,-1,-1,-1,-1,-1,-1,-1,-1,-1],"loss_changes":[2.184579E7,2.6454068E6,2.448184E6,5.2766125E5,1.9816E5,4.785535E5,1.67234E5,2.8392725E5,8.474466E4,0E0,3.521825E4,2.04313E5,0E0,0E0,0E0,1.2567675E5,3.3711312E4,1.4446978E4,3.0099844E4,1.4487305E1,2.838625E3,0E0,0E0,1.6658862E5,1.809945E5,0E0,0E0,1.3315609E4,6.5047046E2,1.9125938E3,1.8351314E4,0E0,0E0,0E0,0E0,0E0,0E0,0E0,0E0,0E0,0E0,0E0,0E0,0E0,0E0,0E0,0E0],"parents":[2147483647,0,0,1,1,2,2,3,3,4,4,5,5,6,6,7,7,8,8,10,10,11,11,15,15,16,16,17,17,18,18,19,19,20,20,23,23,24,24,27,27,28,28,29,29,30,30],"right_children":[2,4,6,8,10,12,14,16,18,-1,20,22,-1,-1,-1,24,26,28,30,32,34,-1,-1,36,38,-1,-1,40,42,44,46,-1,-1,-1,-1,-1,-1,-1,-1,-1,-1,-1,-1,-1,-1,-1,-1],"split_conditions":[3.2381832E4,2.1815234E4,4.960787E4,1.5201214E4,8E0,6.593E1,7.127E1,8.796E1,5.725E1,5.3801857E1,1.81642E4,2.6295072E4,3.564555E1,1.9672783E2,5.160098E1,1.3180087E4,9.165E1,1.936383E4,1.7222574E4,6.393E1,2.876237E4,1.1450281E2,5.205555E1,3.639E1,1.6E1,-4.6020687E1,-1.0214454E1,4.231E1,4.663E1,8.121E1,6.632E1,1.8375E0,6.8916016E0,2.7474936E1,1.0648242E1,1.1549805E0,-4.3359425E1,-1.3076815E1,-2.8739004E1,-1.5280274E0,1.006958E1,1.0015625E0,-9.48584E-1,-1.2385917E1,-2.9878907E0,-5.8259916E0,2.2575195E0],"split_indices":[31,31,31,31,11,2,2,2,2,0,19,25,0,0,0,31,2,18,25,2,20,0,0,2,32,0,0,2,2,2,2,0,0,0,0,0,0,0,0,0,0,0,0,0,0,0,0],"split_type":[0,0,0,0,0,0,0,0,0,0,0,0,0,0,0,0,0,0,0,0,0,0,0,0,0,0,0,0,0,0,0,0,0,0,0,0,0,0,0,0,0,0,0,0,0,0,0],"sum_hessian":[1.3E2,1.14E2,1.6E1,1.02E2,1.2E1,1.2E1,4E0,6.9E1,3.3E1,3E0,9E0,8E0,4E0,3E0,1E0,6.4E1,5E0,9E0,2.4E1,2E0,7E0,4E0,4E0,4E0,6E1,4E0,1E0,4E0,5E0,9E0,1.5E1,1E0,1E0,5E0,2E0,1E0,3E0,5.1E1,9E0,1E0,3E0,2E0,3E0,8E0,1E0,1.2E1,3E0],"tree_param":{"num_deleted":"0","num_feature":"33","num_nodes":"47","size_leaf_vector":"1"}},{"base_weights":[5.7595375E1,-8.7093376E1,1.0329843E3,-1.4196564E2,2.6130164E2,7.1549084E2,1.6518704E3,-2.3205457E2,-9.412998E1,4.9766796E1,1.684734E2,8.5129816E2,3.2793945E1,1.8197334E2,4.90209E1,-1.954127E2,-4.580154E1,-1.619929E2,-4.7143913E1,1.9756694E2,5.6393228E0,1.0534251E2,4.789117E1,-2.56483E2,-1.3003229E2,-8.304325E1,-2.2937166E2,2.6276041E1,-6.573893E1,6.825326E0,2.1871962E2,-8.99707E-1,1.7456055E0,-1.8669271E0,-2.9163364E1,-6.589193E-1,-1.4605208E1,-4.0774417E0,-1.7852173E1,-5.7757425E0,-2.9224161E1,7.411068E0,-5.204492E0,-5.1728835E0,-1.8859701E1,6.5470705E0,2.296919E1],"categories":[],"categories_nodes":[],"categories_segments":[],"categories_sizes":[],"default_left":[0,0,0,0,0,0,0,0,0,0,0,1,0,0,0,1,0,0,1,0,0,0,0,0,0,0,0,1,0,0,0,0,0,0,0,0,0,0,0,0,0,0,0,0,0,0,0],"id":36,"left_children":[1,3,5,7,9,11,13,15,17,-1,19,21,-1,-1,-1,23,-1,25,27,29,31,-1,-1,33,35,37,39,41,43,-1,45,-1,-1,-1,-1,-1,-1,-1,-1,-1,-1,-1,-1,-1,-1,-1,-1],"loss_changes":[1.8577708E7,2.2355768E6,2.158472E6,4.09103E5,2.6721962E5,4.05046E5,8.2951E4,1.9200525E5,2.0600006E5,0E0,6.047225E4,1.729255E5,0E0,0E0,0E0,9.0425875E4,0E0,1.2457956E5,5.7702438E4,1.5160344E4,6.759163E2,0E0,0E0,1.19944875E5,3.2655688E4,4.922157E4,1.3417212E5,3.757518E4,4.7045484E4,0E0,9.53125E1,0E0,0E0,0E0,0E0,0E0,0E0,0E0,0E0,0E0,0E0,0E0,0E0,0E0,0E0,0E0,0E0],"parents":[2147483647,0,0,1,1,2,2,3,3,4,4,5,5,6,6,7,7,8,8,10,10,11,11,15,15,17,17,18,18,19,19,20,20,23,23,24,24,25,25,26,26,27,27,28,28,30,30],"right_children":[2,4,6,8,10,12,14,16,18,-1,20,22,-1,-1,-1,24,-1,26,28,30,32,-1,-1,34,36,38,40,42,44,-1,46,-1,-1,-1,-1,-1,-1,-1,-1,-1,-1,-1,-1,-1,-1,-1,-1],"split_conditions":[3.2381832E4,2.0609277E4,4.960787E4,1.4095544E4,8E0,6.593E1,7.127E1,8.796E1,1.7158857E4,4.9766796E1,2E1,2.6295072E4,3.2793945E1,1.8197334E2,4.90209E1,1.538182E4,-4.580154E1,1.4416433E4,1.853548E4,2.236688E4,4.984E1,1.0534251E2,4.789117E1,4.455E1,9E0,3.488E0,1.3E1,1.846118E4,1.03829E4,6.825326E0,1.81642E4,-8.99707E-1,1.7456055E0,-1.8669271E0,-2.9163364E1,-6.589193E-1,-1.4605208E1,-4.0774417E0,-1.7852173E1,-5.7757425E0,-2.9224161E1,7.411068E0,-5.204492E0,-5.1728835E0,-1.8859701E1,6.5470705E0,2.296919E1],"split_indices":[31,31,31,31,11,2,2,2,22,0,32,25,0,0,0,21,0,31,24,24,2,0,0,2,32,3,32,17,4,0,19,0,0,0,0,0,0,0,0,0,0,0,0,0,0,0,0],"split_type":[0,0,0,0,0,0,0,0,0,0,0,0,0,0,0,0,0,0,0,0,0,0,0,0,0,0,0,0,0,0,0,0,0,0,0,0,0,0,0,0,0,0,0,0,0,0,0],"sum_hessian":[1.3E2,1.14E2,1.6E1,9.9E1,1.5E1,1.2E1,4E0,3.3E1,6.6E1,3E0,1.2E1,8E0,4E0,3E0,1E0,3E1,3E0,2.6E1,4E1,1E1,2E0,4E0,4E0,1.4E1,1.6E1,1.3E1,1.3E1,8E0,3.2E1,2E0,8E0,1E0,1E0,2E0,1.2E1,2E0,1.4E1,1E1,3E0,4E0,9E0,5E0,3E0,3E1,2E0,1E0,7E0],"tree_param":{"num_deleted":"0","num_feature":"33","num_nodes":"47","size_leaf_vector":"1"}},{"base_weights":[5.437918E1,-7.911315E1,9.542168E2,-1.2389883E2,2.818128E2,1.6388506E2,6.904488E2,-2.1155768E2,-7.955169E1,4.6034374E1,1.8221915E2,7.279142E2,1.0169922E1,-1.4034956E2,-3.0325858E2,-1.4790195E2,-3.580149E1,1.6583008E0,1.987806E1,1.2283301E1,7.681016E1,-9.052845E1,-2.2705916E2,-3.5784543E2,-7.733008E1,-7.6305176E1,-2.089343E2,-5.760675E1,2.0626953E1,-3.8326366E0,-1.6244385E1,-2.9773554E1,-3.3578777E0,-3.8066494E1,-6.4825196E0,-7.730469E-1,-9.795313E0,-3.7067564E0,-1.6513233E1,-3.186395E1,-1.1258258E1,2.1785645E0,-8.070805E0,4.649297E0,-4.9194827E0],"categories":[],"categories_nodes":[],"categories_segments":[],"categories_sizes":[],"default_left":[0,0,0,0,0,0,0,0,0,0,0,0,0,0,0,0,0,0,0,0,0,0,0,1,0,0,0,0,0,0,0,0,0,0,0,0,0,0,0,0,0,0,0,0,0],"id":37,"left_children":[1,3,5,7,9,-1,11,13,15,-1,17,19,-1,21,23,25,27,-1,-1,-1,-1,29,31,33,35,37,39,41,43,-1,-1,-1,-1,-1,-1,-1,-1,-1,-1,-1,-1,-1,-1,-1,-1],"loss_changes":[1.5811398E7,1.8938122E6,1.938393E6,3.8357438E5,1.4726369E5,0E0,2.347805E5,1.7945262E5,2.0402853E5,0E0,2.4135375E4,2.217675E5,0E0,7.0164E4,1.4498588E5,1.0203956E5,5.532747E4,0E0,0E0,0E0,0E0,5.0086117E4,8.572391E4,4.887575E4,4.984201E3,4.267407E4,1.1211075E5,6.0448438E4,2.576536E4,0E0,0E0,0E0,0E0,0E0,0E0,0E0,0E0,0E0,0E0,0E0,0E0,0E0,0E0,0E0,0E0],"parents":[2147483647,0,0,1,1,2,2,3,3,4,4,6,6,7,7,8,8,10,10,11,11,13,13,14,14,15,15,16,16,21,21,22,22,23,23,24,24,25,25,26,26,27,27,28,28],"right_children":[2,4,6,8,10,-1,12,14,16,-1,18,20,-1,22,24,26,28,-1,-1,-1,-1,30,32,34,36,38,40,42,44,-1,-1,-1,-1,-1,-1,-1,-1,-1,-1,-1,-1,-1,-1,-1,-1],"split_conditions":[3.2381832E4,2.1815234E4,2.236688E4,1.4095544E4,8E0,1.6388506E2,3.814E0,1.4E1,1.7158857E4,4.6034374E1,1.812252E4,2.338803E4,1.0169922E1,4.159555E4,2.15796E2,1.4416433E4,1.8216596E4,1.6583008E0,1.987806E1,1.2283301E1,7.681016E1,8.313E1,3.698849E4,1.632872E4,3.409E0,3.488E0,1.480344E4,1.750841E4,1.6E1,